tree
version=v4
num_class=1
num_tree_per_iteration=1
label_index=0
max_feature_idx=309
objective=binary sigmoid:1
feature_names=diff_age diff_ape_index diff_avg_opp_wr diff_career_avg_body_attempted diff_career_avg_body_landed diff_career_avg_clinch_attempted diff_career_avg_clinch_landed diff_career_avg_ctrl_seconds diff_career_avg_distance_attempted diff_career_avg_distance_landed diff_career_avg_ground_attempted diff_career_avg_ground_landed diff_career_avg_head_attempted diff_career_avg_head_landed diff_career_avg_kd diff_career_avg_leg_attempted diff_career_avg_leg_landed diff_career_avg_opp_body_landed diff_career_avg_opp_clinch_landed diff_career_avg_opp_ctrl_seconds diff_career_avg_opp_distance_landed diff_career_avg_opp_ground_landed diff_career_avg_opp_head_landed diff_career_avg_opp_kd diff_career_avg_opp_leg_landed diff_career_avg_opp_str_attempted diff_career_avg_opp_str_landed diff_career_avg_opp_td_attempted diff_career_avg_opp_td_landed diff_career_avg_rev diff_career_avg_str_acc diff_career_avg_str_attempted diff_career_avg_str_landed diff_career_avg_sub diff_career_avg_td_acc diff_career_avg_td_attempted diff_career_avg_td_landed diff_career_avg_total_str_attempted diff_career_avg_total_str_landed diff_career_str_acc_true diff_career_str_def_true diff_career_td_acc_true diff_career_td_def_true diff_career_win_rate diff_career_won_by_dec_rate diff_career_won_by_ko_rate diff_career_won_by_sub_rate diff_days_since_last diff_fights_per_year diff_height_inches diff_last3_body_landed diff_last3_clinch_landed diff_last3_ctrl_seconds diff_last3_distance_landed diff_last3_ground_landed diff_last3_head_landed diff_last3_kd diff_last3_leg_landed diff_last3_opp_ctrl_seconds diff_last3_opp_kd diff_last3_opp_str_landed diff_last3_opp_wr diff_last3_str_acc diff_last3_str_attempted diff_last3_str_landed diff_last3_sub diff_last3_td_attempted diff_last3_td_landed diff_last3_won diff_last5_body_landed diff_last5_clinch_landed diff_last5_ctrl_seconds diff_last5_distance_landed diff_last5_ground_landed diff_last5_head_landed diff_last5_kd diff_last5_leg_landed diff_last5_opp_ctrl_seconds diff_last5_opp_kd diff_last5_opp_str_landed diff_last5_str_acc diff_last5_str_attempted diff_last5_str_landed diff_last5_sub diff_last5_td_attempted diff_last5_td_landed diff_last5_won diff_loss_streak diff_profile_sapm diff_profile_slpm diff_profile_str_acc_career diff_profile_str_def_career diff_profile_sub_avg diff_profile_td_acc_career diff_profile_td_avg diff_profile_td_def_career diff_profile_total_fights diff_profile_win_pct diff_reach_inches diff_weight_lbs diff_win_streak f1_age f1_ape_index f1_avg_opp_wr f1_career_avg_body_attempted f1_career_avg_body_landed f1_career_avg_clinch_attempted f1_career_avg_clinch_landed f1_career_avg_ctrl_seconds f1_career_avg_distance_attempted f1_career_avg_distance_landed f1_career_avg_ground_attempted f1_career_avg_ground_landed f1_career_avg_head_attempted f1_career_avg_head_landed f1_career_avg_kd f1_career_avg_leg_attempted f1_career_avg_leg_landed f1_career_avg_opp_body_landed f1_career_avg_opp_clinch_landed f1_career_avg_opp_ctrl_seconds f1_career_avg_opp_distance_landed f1_career_avg_opp_ground_landed f1_career_avg_opp_head_landed f1_career_avg_opp_kd f1_career_avg_opp_leg_landed f1_career_avg_opp_str_attempted f1_career_avg_opp_str_landed f1_career_avg_opp_td_attempted f1_career_avg_opp_td_landed f1_career_avg_rev f1_career_avg_str_acc f1_career_avg_str_attempted f1_career_avg_str_landed f1_career_avg_sub f1_career_avg_td_acc f1_career_avg_td_attempted f1_career_avg_td_landed f1_career_avg_total_str_attempted f1_career_avg_total_str_landed f1_career_fights f1_career_str_acc_true f1_career_str_def_true f1_career_td_acc_true f1_career_td_def_true f1_career_win_rate f1_career_won_by_dec_rate f1_career_won_by_ko_rate f1_career_won_by_sub_rate f1_days_since_last f1_fights_per_year f1_height_inches f1_last3_body_landed f1_last3_clinch_landed f1_last3_ctrl_seconds f1_last3_distance_landed f1_last3_ground_landed f1_last3_head_landed f1_last3_kd f1_last3_leg_landed f1_last3_opp_ctrl_seconds f1_last3_opp_kd f1_last3_opp_str_landed f1_last3_opp_wr f1_last3_str_acc f1_last3_str_attempted f1_last3_str_landed f1_last3_sub f1_last3_td_attempted f1_last3_td_landed f1_last3_won f1_last5_body_landed f1_last5_clinch_landed f1_last5_ctrl_seconds f1_last5_distance_landed f1_last5_ground_landed f1_last5_head_landed f1_last5_kd f1_last5_leg_landed f1_last5_opp_ctrl_seconds f1_last5_opp_kd f1_last5_opp_str_landed f1_last5_str_acc f1_last5_str_attempted f1_last5_str_landed f1_last5_sub f1_last5_td_attempted f1_last5_td_landed f1_last5_won f1_loss_streak f1_profile_sapm f1_profile_slpm f1_profile_str_acc_career f1_profile_str_def_career f1_profile_sub_avg f1_profile_td_acc_career f1_profile_td_avg f1_profile_td_def_career f1_profile_total_fights f1_profile_win_pct f1_reach_inches f1_stance_enc f1_weight_lbs f1_win_streak f2_age f2_ape_index f2_avg_opp_wr f2_career_avg_body_attempted f2_career_avg_body_landed f2_career_avg_clinch_attempted f2_career_avg_clinch_landed f2_career_avg_ctrl_seconds f2_career_avg_distance_attempted f2_career_avg_distance_landed f2_career_avg_ground_attempted f2_career_avg_ground_landed f2_career_avg_head_attempted f2_career_avg_head_landed f2_career_avg_kd f2_career_avg_leg_attempted f2_career_avg_leg_landed f2_career_avg_opp_body_landed f2_career_avg_opp_clinch_landed f2_career_avg_opp_ctrl_seconds f2_career_avg_opp_distance_landed f2_career_avg_opp_ground_landed f2_career_avg_opp_head_landed f2_career_avg_opp_kd f2_career_avg_opp_leg_landed f2_career_avg_opp_str_attempted f2_career_avg_opp_str_landed f2_career_avg_opp_td_attempted f2_career_avg_opp_td_landed f2_career_avg_rev f2_career_avg_str_acc f2_career_avg_str_attempted f2_career_avg_str_landed f2_career_avg_sub f2_career_avg_td_acc f2_career_avg_td_attempted f2_career_avg_td_landed f2_career_avg_total_str_attempted f2_career_avg_total_str_landed f2_career_fights f2_career_str_acc_true f2_career_str_def_true f2_career_td_acc_true f2_career_td_def_true f2_career_win_rate f2_career_won_by_dec_rate f2_career_won_by_ko_rate f2_career_won_by_sub_rate f2_days_since_last f2_fights_per_year f2_height_inches f2_last3_body_landed f2_last3_clinch_landed f2_last3_ctrl_seconds f2_last3_distance_landed f2_last3_ground_landed f2_last3_head_landed f2_last3_kd f2_last3_leg_landed f2_last3_opp_ctrl_seconds f2_last3_opp_kd f2_last3_opp_str_landed f2_last3_opp_wr f2_last3_str_acc f2_last3_str_attempted f2_last3_str_landed f2_last3_sub f2_last3_td_attempted f2_last3_td_landed f2_last3_won f2_last5_body_landed f2_last5_clinch_landed f2_last5_ctrl_seconds f2_last5_distance_landed f2_last5_ground_landed f2_last5_head_landed f2_last5_kd f2_last5_leg_landed f2_last5_opp_ctrl_seconds f2_last5_opp_kd f2_last5_opp_str_landed f2_last5_str_acc f2_last5_str_attempted f2_last5_str_landed f2_last5_sub f2_last5_td_attempted f2_last5_td_landed f2_last5_won f2_loss_streak f2_profile_sapm f2_profile_slpm f2_profile_str_acc_career f2_profile_str_def_career f2_profile_sub_avg f2_profile_td_acc_career f2_profile_td_avg f2_profile_td_def_career f2_profile_total_fights f2_profile_win_pct f2_reach_inches f2_stance_enc f2_weight_lbs f2_win_streak has_switch ortho_vs_south weight_class_ord
feature_infos=[-18.135523613963041:17.763175906913077] [-9:10] [-1:1] [-30.666666666666668:24.5] [-20:21] [-28:30.5] [-20.5:24.5] [-271:290] [-115.75:95] [-61.625:61.5] [-59:74.875] [-40.363636363636367:38.5] [-107.5:84] [-53.75:51.5] [-3:2.7999999999999998] [-25:25] [-21.75:19] [-35:18] [-45:28] [-285:248.66666666666663] [-53:71.5] [-43:42.5] [-50:54.5] [-4:2] [-22:16] [-116.5:91.5] [-59:68.5] [-8.9000000000000004:10.6] [-4:5.333333333333333] [-2:2] [-0.75:0.75] [-111.75:108] [-59.5:75.5] [-2:3] [-1:1] [-9:10.333333333333334] [-4.333333333333333:6.5] [-106.5:108] [-71:80.27272727272728] [-0.75:0.66355140186915884] [-0.72727272727272729:0.75] [-1:1] [-1:1] [-1:1] [-1:1] [-1:1] [-1:1] [-3136:1603] [-16.001428571428569:9.6876344086021522] [-9:11] [-17.666666666666668:14.333333333333332] [-14.666666666666666:15] [-273.66666666666669:236.66666666666663] [-40.333333333333336:34] [-26.666666666666668:28.333333333333336] [-31.666666666666664:25.333333333333336] [-1.3333333333333337:2] [-20:18] [-241.66666666666663:184.66666666666663] [-1.6666666666666667:1.3333333333333333] [-30.333333333333329:36.333333333333336] [-0.68981481481481477:0.83333333333333337] [-0.49365079365079367:0.47936507936507933] [-78:62.666666666666657] [-35.333333333333329:31] [-2:3] [-7.666666666666667:9] [-4.333333333333333:3.6666666666666665] [-1:1] [-13.800000000000001:13.4] [-10.800000000000001:11.800000000000001] [-230.59999999999999:212] [-32.400000000000006:28.199999999999999] [-18.200000000000003:20.399999999999999] [-26.199999999999999:20.600000000000001] [-1.2:1.2] [-14:12] [-184:164.80000000000001] [-1:1] [-27:27] [-0.39324087255530921:0.39221564273715442] [-65:55.799999999999997] [-29.800000000000001:26.399999999999999] [-1.3999999999999999:1.3999999999999999] [-7:6] [-3.2000000000000002:2.6000000000000001] [-0.80000000000000004:0.80000000000000004] [-5:6] [-12.449999999999999:11.56] [-9.1600000000000001:13.07] [-0.3899999999999999:0.37] [-0.45000000000000001:0.37] [-7.4000000000000004:11.800000000000001] [-0.85999999999999999:0.85999999999999999] [-8.7699999999999996:11.49] [-0.85999999999999999:0.90000000000000002] [-52:64] [-0.5:0.5535714285714286] [-11:12] [-62:75] [-10:13] [18.171115674195761:47.375770020533878] [-5:9] [0:1] [0:30] [0:23] [0:39] [0:28] [0:295] [0:128] [0:69] [0:84] [0:43] [0:109] [0:58] [0:3] [0:28] [0:24] [0:28] [0:34] [0:290] [0:77] [0:43] [0:59] [0:3] [0:19] [0:132] [0:77] [0:12] [0:7] [0:2] [0:1] [0:129] [0:83] [0:3] [0:1] [0:12] [0:7] [0:133] [0:118] [0:28] [0:1] [0:1] [0:1] [0:1] [0:1] [0:1] [0:1] [0:1] [7:2555] [0.16670470104974899:36.524999999999999] [60:83] [0:19] [0:22] [0:281] [0:46.333333333333336] [0:29.666666666666668] [0.33333333333333331:37.333333333333336] [0:2] [0:20.666666666666668] [0:253.66666666666663] [0:1.3333333333333333] [0.66666666666666663:49.666666666666657] [0:1] [0.11730115803342341:0.94444444444444442] [4:98] [1:47.666666666666657] [0:3] [0:9] [0:3.6666666666666665] [0:1] [0:16] [0:13.4] [0:256.60000000000002] [0.20000000000000001:37.799999999999997] [0:23] [1:31.600000000000001] [0:1.3999999999999999] [0:19.199999999999999] [0:222.80000000000001] [0:1] [0.40000000000000002:38.200000000000003] [0.19785356958032471:0.85502773088979978] [4.5999999999999996:85] [3:43] [0:2] [0:6.5999999999999996] [0:3.2000000000000002] [0:1] [0:7] [0.40000000000000002:15] [0:15.77] [0.070000000000000007:0.70999999999999996] [0.22:0.81000000000000005] [0:12.1] [0.050000000000000003:1] [0:11.49] [0.070000000000000007:1] [1:78] [0:1] [58:84] [-1:2] [115:265] [0:15] [19.589322381930184:48.295687885010267] [-5:9] [0:1] [0:34] [0:22] [0:28] [0:23] [0:281] [0:136] [0:70] [0:59] [0:41] [0:127] [0:61] [0:3] [0:28] [0:24] [0:37] [0:45] [0:293] [0:57] [0:43] [0:56] [0:4] [0:25] [0:153] [0:67] [0:9] [0:5] [0:2] [0:1] [0:143] [0:71] [0:3] [0:1] [0:9] [0:5] [0:144] [0:87] [0:27] [0:1] [0:1] [0:1] [0:1] [0:1] [0:1] [0:1] [0:1] [14:3290] [0.1178225806451613:17.392857142857142] [60:83] [0:19.666666666666668] [0:18.666666666666668] [0:277.33333333333331] [0:49.666666666666657] [0:27] [0:36.666666666666657] [0:1.6666666666666667] [0:21.666666666666668] [0:241.66666666666663] [0:1.6666666666666667] [0:44.333333333333336] [0:1] [0.1660794941282745:0.87179487179487181] [2.333333333333333:103.33333333333331] [1.3333333333333333:50.666666666666657] [0:2] [0:9] [0:4.333333333333333] [0:1] [0:15.6] [0:15.199999999999999] [0:254.59999999999999] [0:36.399999999999999] [0:19.399999999999999] [1:32] [0:1.2] [0:16] [0:233.59999999999999] [0:1] [1.6000000000000001:39.799999999999997] [0.19283766063467081:0.81999999999999995] [4.4000000000000004:91.400000000000006] [3.6000000000000001:40] [0:1.3999999999999999] [0:8] [0:3.3999999999999999] [0:1] [0:5] [0.13:15.130000000000001] [0:12.91] [0.10000000000000001:0.85999999999999999] [0.040000000000000001:0.92000000000000004] [0:7.9000000000000004] [0.040000000000000001:1] [0:8.9299999999999997] [0.070000000000000007:1] [2:78] [0.33333333333333331:1] [58:84] [-1:2] [115:265] [0:15] [0:1] [0:1] [1:12]
tree_sizes=982 1004 1008 1001 1008 965 1005 1007 1007 1005 901 884 882 999 864 1014 1009 1002 1011 1003 970 905 973 1011 907 893 898 903 1001 865 897 903 875 1006 772 967 775 1006 1015 894 894 904 875 989 898 1006 900 982 988 1011 987 883 990 795 993 982 970 996 900 975 966 1006 999 978 974 901 1005 985 860 988 1008 866 988 974 1008 992 970 987 1005 872 978 907 777 768 981 876 1008 853 903 684 980 975 980 900 775 985 987 664 952 856 790 858 903 1005 875 687 867 773 1010 775 883 683 952 959 987 776 979 688 986 897 859 669 769 898 770 691 906 664 985 992 768 957 773 895 755 999 984 986 687 983 901 891 990 883 856 752 688 966 883 965 1004 690 662 780 888 976 1007 961 1002 575 988 794 973 650 749 686 1003 889 690 968 855 775 770 989 682 774 985 684 977 985 986 688 770 889 767 859 772 681 991 982 976 977 1010 864 1000 837 855 672 989 778 988 1008 689 1009 898 977 1002 991 962 750 1007 1010 690 965 993 1014 983 789 967 665 896 999 1003 666 890 1011 690 685 901 987 998 773 902 1006 772 989 957 961 790 965 980 794 1012 767 1009 1003

Tree=0
num_leaves=8
num_cat=0
split_feature=97 97 96 96 97 205 90
split_gain=534.084 157.471 74.0553 50.61 56.0934 30.0789 11.363
threshold=0.043165715863084257 -0.10476822028546158 1.0000000180025095e-35 -1.0000000180025095e-35 0.12824730094466938 6.5000000000000009 0.054999999999999959
decision_type=10 8 8 10 10 8 10
left_child=1 5 -3 4 -2 -1 -5
right_child=3 2 -4 6 -6 -7 -8
leaf_value=0.23571123982742834 0.28644034863566015 0.25992377607751577 0.29015189239619632 0.32403055153104904 0.32512831937973247 0.30259486848381956 0.34523168757821132
leaf_weight=250.34637382626534 133.25677824020386 234.91406311094761 333.14194560050964 149.91387552022934 132.5219063013792 10.288207143545149 99.207711741328239
leaf_count=1022 544 959 1360 612 541 42 405
internal_value=0.285981 0.265385 0.277789 0.319127 0.306026 0.238652 0.332789
internal_weight=1343.59 828.691 568.056 514.9 265.779 260.635 249.122
internal_count=5485 3383 2319 2102 1085 1064 1017
is_linear=0
shrinkage=1


Tree=1
num_leaves=8
num_cat=0
split_feature=199 302 302 302 199 199 199
split_gain=236.059 191.199 67.3628 53.783 51.3352 24.5939 14.9584
threshold=0.77003205128205143 0.70900537634408611 0.75615615615615628 0.83602150537634423 0.6478537360890303 0.82097069597069605 0.86038961038961048
decision_type=10 8 10 10 8 10 10
left_child=1 4 6 -3 -1 -4 -2
right_child=2 3 5 -5 -6 -7 -8
leaf_value=-0.010882792421213807 0.033494787210797794 -0.022216952231210924 -0.018065604947711502 -0.057447096539347674 0.01592535985510531 0.019869204488128619 0.058585869800921772
leaf_weight=187.09993717074394 163.26804749667645 355.46644996106625 51.514818280935287 100.27919188141823 344.66884364187717 66.481471985578537 74.488303288817406
leaf_count=763 670 1447 210 407 1410 272 306
internal_value=0 -0.010414 0.0289569 -0.0301411 0.00634565 0.00264333 0.0416862
internal_weight=1343.27 987.514 355.753 455.746 531.769 117.996 237.756
internal_count=5485 4027 1458 1854 2173 482 976
is_linear=0
shrinkage=0.0414411


Tree=2
num_leaves=8
num_cat=0
split_feature=97 97 96 96 97 294 89
split_gain=460.234 127.413 68.7049 49.721 53.6614 45.0706 13.8399
threshold=0.036400441663599507 -0.097095959595959583 1.0000000180025095e-35 -2.4999999999999996 0.14295732318172719 2.1850000000000005 -1.4550000000000001
decision_type=10 8 8 10 10 10 10
left_child=1 5 -3 4 -2 -1 -5
right_child=3 2 -4 6 -6 -7 -8
leaf_value=0.0080541929653418221 -0.0015123485796492749 -0.025523292229177652 0.005031509069723228 0.013578437935350232 0.037948482611468444 -0.047209560601393252 0.044365995487737946
leaf_weight=25.431463375687599 136.01407086849213 212.33542151749134 304.69391310214996 36.151125445961952 100.10887134075165 261.60648611187935 266.2172866910696
leaf_count=103 557 863 1243 149 414 1058 1098
internal_value=0 -0.0198412 -0.00736534 0.0296639 0.0148862 -0.0420401 0.0409445
internal_weight=1342.56 804.067 517.029 538.491 236.123 287.038 302.368
internal_count=5485 3267 2106 2218 971 1161 1247
is_linear=0
shrinkage=0.0414411


Tree=3
num_leaves=8
num_cat=0
split_feature=97 97 301 97 294 200 191
split_gain=425.054 123.148 71.2859 34.6808 33.5351 25.7398 19.9783
threshold=0.043165715863084257 -0.10814481217707018 17.500000000000004 0.13839743589743594 2.1850000000000005 63.500000000000007 3.1250000000000004
decision_type=10 8 8 10 10 10 10
left_child=1 4 -3 6 -1 -5 -2
right_child=3 2 -4 5 -6 -7 -8
leaf_value=0.0048096846071843235 0.0031973185667957859 0.016603499005097937 -0.016243850548643982 -0.0065299123200986608 -0.046916273282148646 0.04751946263590423 0.027528570145551063
leaf_weight=20.731553390622139 90.182807862758636 152.28903402388096 428.61019694805145 13.707245498895643 232.30826103687286 190.27658973634243 213.06506551802158
leaf_count=84 372 621 1743 57 935 793 880
internal_value=0 -0.0181725 -0.00749758 0.0299362 -0.0423686 0.0435032 0.0205513
internal_weight=1341.17 833.939 580.899 507.232 253.04 203.984 303.248
internal_count=5485 3383 2364 2102 1019 850 1252
is_linear=0
shrinkage=0.0414411


Tree=4
num_leaves=8
num_cat=0
split_feature=90 199 199 297 0 199 0
split_gain=198.77 81.8796 60.2747 36.6077 35.6001 29.0789 4.98226
threshold=0.039999999999999959 0.74133811230585434 0.77888888888888907 1.0000000180025095e-35 -3.0759753593429173 0.84807692307692317 5.4099931553730327
decision_type=10 10 10 10 8 10 10
left_child=1 4 3 -2 -1 -3 -4
right_child=2 5 6 -5 -6 -7 -8
leaf_value=0.00057079883140193619 0.033110176491414699 -1.7951754671380382e-05 0.046219764639187415 0.0013183465323647764 -0.024737073472640713 0.031279180645079757 0.0062267736868127435
leaf_weight=110.83150096237659 92.284751743078232 217.83325274288654 140.40441299974918 208.17127326130867 494.84071670472622 64.660249143838882 10.347455218434332
leaf_count=452 378 896 587 851 2008 270 43
internal_value=0 -0.0113499 0.0224271 0.0113443 -0.0199766 0.00686854 0.0439948
internal_weight=1339.37 888.166 451.208 300.456 605.672 282.494 150.752
internal_count=5485 3626 1859 1229 2460 1166 630
is_linear=0
shrinkage=0.0414411


Tree=5
num_leaves=8
num_cat=0
split_feature=97 97 301 294 97 194 98
split_gain=377.35 110.991 53.045 37.8501 30.5944 18.5538 13.3323
threshold=0.043165715863084257 -0.097095959595959583 17.500000000000004 2.1850000000000005 0.13839743589743594 1.0000000180025095e-35 -6.4999999999999991
decision_type=10 8 10 10 10 10 10
left_child=1 3 -3 -1 5 -2 -6
right_child=4 2 -4 -5 6 -7 -8
leaf_value=0.0079144210697325214 0 0.015381233274878971 -0.013725817483642887 -0.042553231356072911 0 0.02480815461219572 0.043789671392396194
leaf_weight=25.417586460709572 62.240466639399529 144.76609502732754 401.8098937869072 263.66510170698166 10.217585787177084 239.49323147535324 190.69795635342598
leaf_count=103 258 592 1630 1058 43 994 807
internal_value=0 -0.017027 -0.00587307 -0.0378447 0.0284123 0.0195677 0.0413045
internal_weight=1338.31 835.659 546.576 289.083 502.649 301.734 200.916
internal_count=5485 3383 2222 1161 2102 1252 850
is_linear=0
shrinkage=0.0414411


Tree=6
num_leaves=8
num_cat=0
split_feature=90 199 199 96 198 91 96
split_gain=177.871 69.2898 63.8467 41.5369 37.2267 35.3155 9.64341
threshold=0.024999999999999953 0.77888888888888907 0.7386128364389235 -1.0000000180025095e-35 12.500000000000002 -0.074999999999999942 -2.4999999999999996
decision_type=10 10 10 10 8 8 10
left_child=2 3 4 -2 -1 -4 -3
right_child=1 6 5 -5 -6 -7 -8
leaf_value=-0.064885914796122074 -0.0095558891197471546 0.028113058993484222 -0.02829022212776389 0.018906362128888243 -0.017602662895406705 0.011670198621385531 0.051339692874289675
leaf_weight=31.921790480613708 137.82980763912201 82.881765857338905 45.606491029262543 232.04150630533695 506.49523723125458 212.29722452163696 86.79545097053051
leaf_count=129 562 351 188 953 2052 881 369
internal_value=0 0.018413 -0.0124049 0.00808821 -0.020552 0.00429957 0.040457
internal_weight=1335.87 539.549 796.321 369.871 538.417 257.904 169.677
internal_count=5485 2235 3250 1515 2181 1069 720
is_linear=0
shrinkage=0.0414411


Tree=7
num_leaves=8
num_cat=0
split_feature=90 302 89 101 190 297 222
split_gain=165.312 114.678 45.3093 34.2335 29.896 26.5956 10.4276
threshold=0.039999999999999959 0.73746867167919816 -0.084999999999999895 33.674195756331294 3.6250000000000004 1.0000000180025095e-35 0.93725490196078431
decision_type=10 10 8 10 8 10 8
left_child=1 2 -1 5 -3 -2 -5
right_child=3 4 -4 6 -6 -7 -8
leaf_value=-0.0097557522538205873 0.044744168850283372 -0.016247284008610797 0.014361182296502153 -0.0209759855950124 -0.041359800972090438 0.018601510706556038 0.0081053653676511819
leaf_weight=277.10293047130108 107.77824005484581 183.47463215887547 256.88226997852325 28.278431683778763 170.94137193262577 226.78177560865879 83.169566243886948
leaf_count=1136 453 743 1057 116 690 947 343
internal_value=0 -0.0102924 0.00169933 0.0206283 -0.028581 0.027258 2.26437e-05
internal_weight=1334.41 888.401 533.985 446.008 354.416 334.56 111.448
internal_count=5485 3626 2193 1859 1433 1400 459
is_linear=0
shrinkage=0.0414411


Tree=8
num_leaves=8
num_cat=0
split_feature=90 0 0 91 297 301 123
split_gain=152.434 58.3117 51.1452 32.4055 27.7218 25.6593 8.69586
threshold=0.039999999999999959 -0.29158110882956645 -0.15879534565366343 -0.04999999999999994 1.0000000180025095e-35 14.500000000000002 6.7638888888888902
decision_type=10 10 10 10 8 10 10
left_child=1 3 6 -1 -4 -3 -2
right_child=2 5 4 -5 -6 -7 -8
leaf_value=-0.016047161473420647 0.042293609099125169 0.0012762533426497339 0.027492869536302308 0.010880986585032223 -0.003838293950904354 -0.022779098998047139 0.023021757369536194
leaf_weight=108.29748798906803 122.63602440059185 84.766086786985397 68.782940685749054 256.48099093139172 154.52671940624714 439.29979510605335 98.185150787234306
leaf_count=442 520 345 288 1056 639 1783 412
internal_value=0 -0.00986388 0.0198673 0.00267145 0.0054615 -0.0187387 0.0340801
internal_weight=1332.98 888.844 444.131 364.778 223.31 524.066 220.821
internal_count=5485 3626 1859 1498 927 2128 932
is_linear=0
shrinkage=0.0414411


Tree=9
num_leaves=8
num_cat=0
split_feature=97 97 96 96 97 96 124
split_gain=320.892 88.8551 56.7518 47.6376 40.6978 23.4591 9.65238
threshold=0.036400441663599507 -0.10814481217707018 1.0000000180025095e-35 -2.4999999999999996 0.14295732318172719 7.5000000000000009 0.31009615384615391
decision_type=10 8 8 10 10 10 8
left_child=1 5 -3 4 -2 -1 -5
right_child=3 2 -4 6 -6 -7 -8
leaf_value=-0.048270377752944647 -0.0034236955131628816 -0.022841846936822289 0.0039927216139371523 0.041017714532867608 0.031481491399380883 -0.02115787653533311 0.020344314443488967
leaf_weight=142.71468110382557 134.80876813828945 226.52306833863258 327.12045319378376 225.48069448769093 95.682482495903969 111.52159053087234 67.815798938274384
leaf_count=572 557 914 1334 959 414 447 288
internal_value=0 -0.0163331 -0.00684514 0.0253111 0.0107265 -0.0366862 0.0365052
internal_weight=1331.67 807.88 553.644 523.788 230.491 254.236 293.296
internal_count=5485 3267 2248 2218 971 1019 1247
is_linear=0
shrinkage=0.0414411


Tree=10
num_leaves=7
num_cat=0
split_feature=302 96 101 302 204 91
split_gain=140.445 60.6553 44.5972 38.3106 36.274 35.8546
threshold=0.73746867167919816 -2.4999999999999996 33.479808350444905 0.91987179487179505 31.327857631759073 0.079999999999999974
decision_type=10 10 10 10 8 10
left_child=1 4 -3 5 -1 -2
right_child=3 2 -4 -5 -6 -7
leaf_value=-0.017540356316363654 -0.019856693371866116 0.027594398580595939 0.00016135436213816063 -0.06296539015302563 0.0096691905013476537 0.0095196701178759772
leaf_weight=159.91088765859604 376.35401801764965 351.35979606211185 151.41218782961369 30.902624309062958 174.56517830491066 84.092156782746315
leaf_count=661 1528 1477 624 124 726 345
internal_value=0 0.010369 0.0194888 -0.0175407 -0.00310523 -0.0143214
internal_weight=1328.6 837.248 502.772 491.349 334.476 460.446
internal_count=5485 3488 2101 1997 1387 1873
is_linear=0
shrinkage=0.0414411


Tree=11
num_leaves=7
num_cat=0
split_feature=199 89 88 88 192 88
split_gain=142.608 94.0997 50.7416 34.6249 23.4415 7.91426
threshold=0.82097069597069605 -0.039999999999999744 -0.55499999999999983 -0.98999999999999999 0.40500000000000008 1.8200000000000005
decision_type=10 10 10 10 10 10
left_child=1 3 -3 -1 -2 -6
right_child=4 2 -4 -5 5 -7
leaf_value=-0.0035069680180429201 -0.0094734116106277855 0.028552478258662566 -0.00046204595493663596 -0.025376163442339266 0.039704514969796018 0
leaf_weight=203.74066236615181 17.414914831519127 133.70486778020859 436.31341993808746 359.80972315371037 166.25609685480595 9.8678237795829755
leaf_count=836 73 558 1791 1462 723 42
internal_value=0 -0.00556425 0.0062063 -0.0176089 0.0329252 0.0375627
internal_weight=1327.11 1133.57 570.018 563.55 193.539 176.124
internal_count=5485 4647 2349 2298 838 765
is_linear=0
shrinkage=0.0414411


Tree=12
num_leaves=7
num_cat=0
split_feature=199 96 101 199 196 199
split_gain=132.067 65.1895 75.6579 26.9179 9.17333 6.20138
threshold=0.82097069597069605 -1.0000000180025095e-35 33.575633127994529 0.6478537360890303 0.070000000000000021 0.89087301587301593
decision_type=10 10 10 8 10 10
left_child=1 3 -3 -1 -2 -6
right_child=4 2 -4 -5 5 -7
leaf_value=-0.035978567187245993 0 0.01280372210322033 -0.015653093855301749 -0.011578201245572788 0.027760787687699174 0.0485218151718061
leaf_weight=109.78941841423512 13.271086886525152 445.08825938403606 249.70420823991299 329.07169349491596 125.79083701968193 52.662651360034943
leaf_count=442 57 1842 1017 1346 547 234
internal_value=0 -0.00533543 0.00246367 -0.0178613 0.0318535 0.0343276
internal_weight=1325.38 1133.65 694.792 438.861 191.725 178.453
internal_count=5485 4647 2859 1788 838 781
is_linear=0
shrinkage=0.0414411


Tree=13
num_leaves=8
num_cat=0
split_feature=97 97 301 303 90 110 88
split_gain=272.738 82.5497 33.6144 26.8307 24.5455 28.1 12.1739
threshold=0.043165715863084257 -0.079337712096332683 13.500000000000002 81.500000000000014 0.034999999999999955 6.7678571428571432 -0.31999999999999956
decision_type=10 8 8 8 10 10 10
left_child=1 3 -3 -1 5 -2 -6
right_child=4 2 -4 -5 6 -7 -8
leaf_value=-0.03231248254980449 -0.0024021780638721468 0.024726845744178792 -0.0075668097033819368 0.027154421667853108 0.042761839920343887 0.0254827795988521 0.020636227342221015
leaf_weight=330.54557237029076 91.024133592844009 62.855154678225517 430.36489111185074 12.12233556807041 143.48838347196579 167.18836718797684 86.086529925465584
leaf_count=1328 383 260 1746 49 636 709 374
internal_value=0 -0.0143265 -0.00329229 -0.0299798 0.0246679 0.0153494 0.034807
internal_weight=1323.68 835.888 493.22 342.668 487.787 258.213 229.575
internal_count=5485 3383 2006 1377 2102 1092 1010
is_linear=0
shrinkage=0.0414411


Tree=14
num_leaves=7
num_cat=0
split_feature=97 97 89 205 97 91
split_gain=252.968 70.5314 52.6283 46.0162 28.3652 17.8383
threshold=-0.03711243675904239 0.080460856313149462 -0.37500000000000017 inf -0.13086080586080576 -0.094999999999999932
decision_type=10 10 10 8 8 10
left_child=3 2 -2 4 -1 -3
right_child=1 5 -4 -5 -6 -7
leaf_value=-0.038296887340975187 -0.013170149597413632 0 0.015005162257286309 0.046224834838579018 -0.016963156038781235 0.031521975772526696
leaf_weight=189.19934341311455 187.21581748127937 30.960703164339066 285.73330126702785 15.147879555821417 298.2179781794548 313.82697705924511
leaf_count=760 765 133 1183 62 1204 1378
internal_value=0 0.014269 0.00368629 -0.0230899 -0.0254052 0.028558
internal_weight=1320.3 817.737 472.949 502.565 487.417 344.788
internal_count=5485 3459 1948 2026 1964 1511
is_linear=0
shrinkage=0.0414411


Tree=15
num_leaves=8
num_cat=0
split_feature=97 97 96 96 97 294 192
split_gain=234.397 65.5703 46.3146 42.9265 33.7757 31.1287 14.5301
threshold=0.036400441663599507 -0.097095959595959583 1.0000000180025095e-35 -1.0000000180025095e-35 0.12824730094466938 2.1850000000000005 0.44500000000000006
decision_type=10 8 8 10 10 10 10
left_child=1 5 -3 4 -2 -1 -5
right_child=3 2 -4 6 -6 -7 -8
leaf_value=0.01172183114657244 -0.0030468320678107164 -0.019672672549331149 0.0053493676368767448 0.019513099005626682 0.026275674878935583 -0.034054742972506172 0.042700431299216184
leaf_weight=25.535032540559769 143.65143799781799 214.59872528910637 304.03472036123276 88.232429876923561 120.74372701346874 263.0534595400095 156.96080282330513
leaf_count=103 598 863 1243 380 541 1058 699
internal_value=0 -0.0138449 -0.00485312 0.0220522 0.0100479 -0.0297326 0.0346766
internal_weight=1316.81 807.222 518.633 509.588 264.395 288.588 245.193
internal_count=5485 3267 2106 2218 1139 1161 1079
is_linear=0
shrinkage=0.0414411


Tree=16
num_leaves=8
num_cat=0
split_feature=302 89 89 192 190 17 297
split_gain=104.596 60.9796 40.1661 36.9862 33.9759 27.2686 19.039
threshold=0.73746867167919816 -0.084999999999999895 1.1800000000000006 0.44500000000000006 3.6250000000000004 0.7511904761904763 1.0000000180025095e-35
decision_type=10 10 10 10 8 10 10
left_child=1 3 4 -1 -2 -4 -3
right_child=2 6 5 -5 -6 -7 -8
leaf_value=-0.016924275055036065 -0.010860612927729239 0.034585796368920875 0.022981615800770596 0.0090844118151840753 -0.036907609000147355 -0.018770590876951473 0.014025559303568542
leaf_weight=178.71172073483467 224.08335216343403 112.5630607008934 68.318388521671295 194.52550818026066 153.17231248319149 42.68454909324646 338.69181177020073
leaf_count=735 918 493 284 821 621 174 1439
internal_value=0 0.00905346 -0.0151488 -0.00315899 -0.0216442 0.00622023 0.0193281
internal_weight=1312.75 824.492 488.259 373.237 377.256 111.003 451.255
internal_count=5485 3488 1997 1556 1539 458 1932
is_linear=0
shrinkage=0.0414411


Tree=17
num_leaves=8
num_cat=0
split_feature=90 91 101 293 102 198 242
split_gain=109.606 40.2843 24.863 21.0948 17.2502 14.289 12.1378
threshold=0.024999999999999953 -0.059999999999999942 33.479808350444905 4.8950000000000005 2.5000000000000004 18.500000000000004 18.035714285714288
decision_type=10 8 8 10 10 10 8
left_child=1 5 -3 4 -2 -1 -5
right_child=3 2 -4 6 -6 -7 -8
leaf_value=-0.044140284651119674 0.003865949449106012 0.0014914799353827979 -0.015746817347019347 0.0073593061672578407 0.022354268852981224 -0.017334257021695849 0.040686516747740209
leaf_weight=62.219130411744118 273.9708956182003 395.57800950109959 219.72700771689415 33.175011307001114 136.95592518150806 112.52515311539173 76.480537801980972
leaf_count=254 1169 1642 895 144 586 459 336
internal_value=0 -0.00967729 -0.00453703 0.0148141 0.0102187 -0.027328 0.0313191
internal_weight=1310.63 790.049 615.305 520.582 410.927 174.744 109.656
internal_count=5485 3250 2537 2235 1755 713 480
is_linear=0
shrinkage=0.0414411


Tree=18
num_leaves=8
num_cat=0
split_feature=97 97 96 96 97 300 192
split_gain=208.086 61.0293 42.8538 40.604 29.4399 24.0946 11.0274
threshold=0.043165715863084257 -0.079337712096332683 1.5000000000000002 -1.0000000180025095e-35 0.12824730094466938 0.33500000000000008 0.44500000000000006
decision_type=10 8 10 10 10 10 10
left_child=1 5 -3 4 -2 -1 -5
right_child=3 2 -4 6 -6 -7 -8
leaf_value=0.0081480909404684672 -0.0031557636819144084 -0.015924526759536862 0.0084791473512393235 0.02073428751419935 0.024915587796842949 -0.029351668260689388 0.042277703563641696
leaf_weight=28.984291478991508 130.16483703255653 233.20489735901356 259.3326862603426 82.645538300275803 118.94949215650558 311.98178298771381 143.89726786315441
leaf_count=117 544 940 1066 359 541 1260 658
internal_value=0 -0.0124264 -0.00291631 0.021925 0.00993355 -0.025934 0.0347648
internal_weight=1309.16 833.504 492.538 475.657 249.114 340.966 226.543
internal_count=5485 3383 2006 2102 1085 1377 1017
is_linear=0
shrinkage=0.0414411


Tree=19
num_leaves=8
num_cat=0
split_feature=90 89 0 88 88 297 107
split_gain=98.6455 44.1753 39.3126 31.4463 23.6846 23.076 7.36293
threshold=0.039999999999999959 -0.039999999999999744 -0.15879534565366343 1.1950000000000001 1.2650000000000001 1.0000000180025095e-35 4.3693181818181825
decision_type=10 8 10 8 10 10 10
left_child=1 4 6 -3 -1 -4 -2
right_child=2 3 5 -5 -6 -7 -8
leaf_value=-0.012784934817267609 0.032571108074485981 0.010655767410678398 0.024282308558248308 -0.013965619745864447 -0.042630401222451007 -0.0048214057377678156 0.0064179347664286941
leaf_weight=426.7030686289072 179.88701945543289 263.28371012210846 66.18282850086689 133.29664373397827 54.749769479036331 151.6426187902689 29.248840928077698
leaf_count=1753 804 1104 288 546 223 639 128
internal_value=0 -0.00788583 0.016398 0.00218245 -0.016342 0.00366173 0.0292884
internal_weight=1304.99 878.033 426.961 396.58 481.453 217.825 209.136
internal_count=5485 3626 1859 1650 1976 927 932
is_linear=0
shrinkage=0.0414411


Tree=20
num_leaves=8
num_cat=0
split_feature=90 302 89 300 88 137 48
split_gain=91.0398 64.0571 38.8368 22.0306 12.3691 12.3443 9.40629
threshold=0.039999999999999959 0.81934731934731941 1.0000000180025095e-35 0.46500000000000002 -0.19999999999999987 0.89444444444444449 -0.61330690307461777
decision_type=10 10 8 10 10 10 8
left_child=1 2 -1 6 -5 -3 -2
right_child=3 5 -4 4 -6 -7 -8
leaf_value=-0.011317011014401026 0 -0.03912570025127611 0.0077197589085853504 0.016873536482415408 0 -0.0032731321515219939 0.037693315661051933
leaf_weight=402.94382511079311 15.054458379745482 115.15520806610584 334.9500128030777 187.81913527846336 132.08361878991127 24.96896056830883 90.006994888186455
leaf_count=1655 65 469 1400 829 562 102 403
internal_value=0 -0.00756267 -0.00256949 0.0158031 0.010038 -0.0332967 0.0326106
internal_weight=1302.98 878.018 737.894 424.964 319.903 140.124 105.061
internal_count=5485 3626 3055 1859 1391 571 468
is_linear=0
shrinkage=0.0414411


Tree=21
num_leaves=7
num_cat=0
split_feature=199 302 96 302 88 89
split_gain=92.6598 81.1327 61.7083 25.2097 14.1339 7.86141
threshold=0.82097069597069605 0.73746867167919816 -1.0000000180025095e-35 0.83602150537634423 1.3550000000000006 -0.94000000000000006
decision_type=10 10 10 10 10 8
left_child=1 2 -1 -3 5 -2
right_child=4 3 -4 -5 -6 -7
leaf_value=-0.0095703323985523187 0.011220128114583861 -0.012212346022023422 0.014930568771582383 -0.035759960080658029 -0.0047049159323124161 0.036529406470547053
leaf_weight=315.09208787977695 37.005703195929527 291.02093215286732 396.0846192240715 117.03641068935394 16.935928627848625 127.57967704534531
leaf_count=1300 165 1181 1688 478 74 599
internal_value=0 -0.00439546 0.00396506 -0.0191585 0.0275229 0.0313154
internal_weight=1300.76 1119.23 711.177 408.057 181.521 164.585
internal_count=5485 4647 2988 1659 838 764
is_linear=0
shrinkage=0.0414411


Tree=22
num_leaves=8
num_cat=0
split_feature=199 89 0 222 90 17 197
split_gain=85.9549 61.0561 38.6296 25.7241 16.355 10.5372 3.50426
threshold=0.82097069597069605 -0.039999999999999744 1.1704312114989721 1.607692307692308 -0.059999999999999942 -0.15229468599033816 0.32500000000000007
decision_type=10 10 10 10 8 8 10
left_child=1 3 -3 -1 5 -2 -6
right_child=4 2 -4 -5 6 -7 -8
leaf_value=-0.020914288454934492 0.03154013481395878 0.01508349028579827 -0.0067251418806155549 -0.0021400070541397246 0 -0.016817103344199048 0.034245658798210066
leaf_weight=347.28952367603779 12.072847574949263 313.41880784928799 245.58324965834618 211.65360632538795 8.1578808873891813 21.50456491112709 137.9641077965498
leaf_count=1427 53 1330 1019 871 38 92 655
internal_value=0 -0.00422096 0.00536223 -0.0139454 0.0266572 0 0.0326513
internal_weight=1297.64 1117.95 559.002 558.943 179.699 33.5774 146.122
internal_count=5485 4647 2349 2298 838 145 693
is_linear=0
shrinkage=0.0414411


Tree=23
num_leaves=8
num_cat=0
split_feature=97 97 89 96 199 96 198
split_gain=171.515 49.8206 38.205 37.4035 25.2041 22.1908 10.4361
threshold=0.043165715863084257 -0.10814481217707018 -0.48500000000000004 -1.0000000180025095e-35 0.86515151515151534 7.5000000000000009 42.500000000000007
decision_type=10 8 8 10 10 10 10
left_child=1 5 -3 4 -2 -1 -5
right_child=3 2 -4 6 -6 -7 -8
leaf_value=-0.037991000228241714 0.0010444554845573148 -0.018172992456405527 0.0036626155635736519 0.035818308259262528 0.033386202257523437 -0.011771234001148228 0.0022139532094077297
leaf_weight=139.96652010083199 190.30187617242336 218.24711890518665 361.83020727336407 197.61319260299206 54.963489323854446 109.72627006471157 22.732664570212364
leaf_count=572 821 881 1483 916 264 447 101
internal_value=0 -0.0112424 -0.00441771 0.0201834 0.00861214 -0.0267831 0.0327072
internal_weight=1295.38 829.77 580.077 465.611 245.265 249.693 220.346
internal_count=5485 3383 2364 2102 1085 1019 1017
is_linear=0
shrinkage=0.0414411


Tree=24
num_leaves=7
num_cat=0
split_feature=97 89 303 96 97 96
split_gain=160.024 48.4944 38.3988 30.8644 26.5184 26.1113
threshold=-0.03711243675904239 -0.37500000000000017 1.0000000180025095e-35 6.5000000000000009 0.082775670848675917 -1.0000000180025095e-35
decision_type=10 10 10 8 10 10
left_child=2 4 -1 -4 -2 -3
right_child=1 5 3 -5 -6 -7
leaf_value=0.045349570878152126 -0.010982297090508296 0.0088849010201839176 -0.029839626429387971 -0.0080714571557404455 0.014703335601420982 0.028564227605192886
leaf_weight=14.98297308385372 189.2207638323307 231.9356689453125 272.15016542375088 210.27338445186615 107.77048996090889 264.92515216767788
leaf_count=62 774 1012 1107 857 481 1192
internal_value=0 0.0116056 -0.0183723 -0.0205142 -0.00139766 0.0195358
internal_weight=1291.26 793.852 497.407 482.424 296.991 496.861
internal_count=5485 3459 2026 1964 1255 2204
is_linear=0
shrinkage=0.0414411


Tree=25
num_leaves=7
num_cat=0
split_feature=97 97 301 192 96 186
split_gain=149.981 43.6486 42.6852 36.3478 30.3529 21.7003
threshold=0.043165715863084257 -0.10814481217707018 17.500000000000004 0.33500000000000008 -2.4999999999999996 0.70000000000000007
decision_type=10 8 8 10 10 8
left_child=1 5 -3 -2 -5 -1
right_child=3 2 -4 4 -6 -7
leaf_value=-0.04440086638404217 -0.049800740546380284 0.01477114756658033 -0.01082750037625047 0.0085805209495655593 0.030946789237506156 -0.01632000431414056
leaf_weight=74.704276189208031 12.147139787673948 149.37775063514709 430.09211282432079 201.11338070034981 246.63763621449471 173.48617239296436
leaf_count=307 51 621 1743 895 1156 712
internal_value=0 -0.0104839 -0.00409328 0.019033 0.0210759 -0.0250886
internal_weight=1287.56 827.66 579.47 459.898 447.751 248.19
internal_count=5485 3383 2364 2102 2051 1019
is_linear=0
shrinkage=0.0414411


Tree=26
num_leaves=7
num_cat=0
split_feature=97 97 192 294 301 97
split_gain=138.571 40.48 33.4933 26.9344 26.2469 17.0772
threshold=0.043165715863084257 -0.079337712096332683 0.33500000000000008 2.1850000000000005 13.500000000000002 0.13839743589743594
decision_type=10 8 10 10 8 10
left_child=1 3 -2 -1 -3 -4
right_child=2 4 5 -5 -6 -7
leaf_value=0.01362249180847132 -0.047301104522371643 0.022714345578125988 0.013432504364749584 -0.025054582388683921 -0.006075747356395338 0.031015062985264154
leaf_weight=31.673914819955826 12.256816580891607 61.684857860207558 273.72238612174988 304.37432157993317 428.96424974501133 170.74156282842159
leaf_count=128 51 260 1215 1249 1746 836
internal_value=0 -0.0100656 0.0183756 -0.0211758 -0.00229634 0.0203634
internal_weight=1283.42 826.697 456.721 336.048 490.649 444.464
internal_count=5485 3383 2102 1377 2006 2051
is_linear=0
shrinkage=0.0414411


Tree=27
num_leaves=7
num_cat=0
split_feature=302 89 236 297 302 112
split_gain=60.9437 49.5948 27.4467 24.3044 18.3471 17.0422
threshold=0.79118217054263573 -0.039999999999999744 14.757352941176473 1.0000000180025095e-35 0.91987179487179505 2.5634920634920646
decision_type=10 10 10 10 10 10
left_child=1 2 -1 -3 5 -2
right_child=4 3 -4 -5 -6 -7
leaf_value=-0.015994314503181322 -0.020756206208520398 0.028972196991001391 0.0037988532784159813 0.0080063489069634591 -0.049641730207482374 0.0031166044060789238
leaf_weight=216.11512917280197 163.03802724182606 131.60953089594841 261.28640639781952 410.39018034934998 29.519073829054832 67.245522812008858
leaf_count=906 678 604 1106 1787 124 280
internal_value=0 0.00462347 -0.0049972 0.0132421 -0.0178598 -0.0134448
internal_weight=1279.2 1019.4 477.402 542 259.803 230.284
internal_count=5485 4403 2012 2391 1082 958
is_linear=0
shrinkage=0.0414411


Tree=28
num_leaves=8
num_cat=0
split_feature=0 301 88 302 88 198 22
split_gain=65.8977 40.4972 27.0895 25.8591 24.4791 20.2823 8.4187
threshold=-0.15879534565366343 14.500000000000002 1.1950000000000001 0.70782520325203258 -1.0049999999999997 14.500000000000002 -5.7607142857142852
decision_type=8 10 10 10 10 10 10
left_child=4 2 -2 -3 6 -6 -1
right_child=1 3 -4 -5 5 -7 -8
leaf_value=0.033630726987527663 0.022520153456249442 -0.0029767718217785519 -0.022302276677887718 -0.020804579470196764 -0.016172888563861905 0.0092911095443323089 0.011344408771229235
leaf_weight=90.42724384367466 103.20765881240368 265.87542505562305 28.238126963376999 324.10641595721245 61.9771429002285 340.81732413172722 62.43595452606678
leaf_count=422 447 1130 119 1344 269 1471 283
internal_value=0 -0.00820361 0.0122944 -0.0129034 0.0107839 0.00517831 0.0250413
internal_weight=1277.09 721.428 131.446 589.982 555.658 402.794 152.863
internal_count=5485 3040 566 2474 2445 1740 705
is_linear=0
shrinkage=0.0414411


Tree=29
num_leaves=7
num_cat=0
split_feature=97 205 97 190 89 197
split_gain=122.188 37.7785 38.3258 18.5966 19.6574 6.91176
threshold=0.043165715863084257 inf -0.10245852187028653 5.5100000000000007 -0.37500000000000017 0.67500000000000016
decision_type=10 8 8 10 10 10
left_child=1 2 -1 4 -2 -5
right_child=3 -3 -4 5 -6 -7
leaf_value=-0.024265326188120238 0.007251648191131832 0.046146496773712201 -0.0045717807315208666 -0.041885233485729055 0.026509957341351635 0
leaf_weight=254.98675873875618 157.78117391467094 19.948011562228203 548.84655164182186 10.077313065528871 267.54328422248363 15.962806209921835
leaf_count=1058 701 84 2241 45 1281 75
internal_value=0 -0.00943929 -0.0109164 0.0173864 0.0195502 -0.0149434
internal_weight=1275.15 823.781 803.833 451.365 425.324 26.0401
internal_count=5485 3383 3299 2102 1982 120
is_linear=0
shrinkage=0.0414411


Tree=30
num_leaves=7
num_cat=0
split_feature=0 96 302 193 302 191
split_gain=58.7248 45.4014 31.0029 29.7167 21.0942 18.9844
threshold=-0.15879534565366343 -1.4999999999999998 0.91987179487179505 0.38500000000000006 0.79118217054263573 5.0500000000000007
decision_type=8 8 10 10 10 10
left_child=3 5 -3 -1 -5 -2
right_child=1 2 -4 4 -6 -7
leaf_value=-0.062549109862922614 -0.027854675273427165 0.0015789894120917 -0.04907122734463884 0.014979582472971618 -0.0077937137526772589 0.0051279219546809069
leaf_weight=9.138709679245947 196.95047587156296 469.71993277966976 21.671268776059151 465.60427956283092 77.341238781809807 30.783793613314629
leaf_count=38 818 1997 93 2082 325 132
internal_value=0 -0.00774793 -0.00049562 0.0102216 0.0115912 -0.0230521
internal_weight=1271.21 719.125 491.391 552.084 542.946 227.734
internal_count=5485 3040 2090 2445 2407 950
is_linear=0
shrinkage=0.0414411


Tree=31
num_leaves=7
num_cat=0
split_feature=90 193 298 297 34 218
split_gain=64.8364 25.5617 26.3642 22.1102 13.3875 11.1364
threshold=0.039999999999999959 0.38500000000000006 0.20500000000000004 1.0000000180025095e-35 0.004479316979316951 0.40833333333333338
decision_type=10 8 10 10 8 10
left_child=1 -1 -3 5 -5 -2
right_child=3 2 -4 4 -6 -7
leaf_value=-0.06322633611496932 0.032867018459144137 0.011034228591272403 -0.008666115927973039 -0.0028733548145039168 0.014788635438888668 -0.0035858957687034112
leaf_weight=13.63821044564247 110.19612696766853 136.4533699452877 710.17230176925659 122.39278200268745 164.22793194651604 12.196461185812948
leaf_count=56 520 579 2991 541 743 55
internal_value=0 -0.00640649 -0.00539833 0.0136348 0.00697321 0.0285941
internal_weight=1269.28 860.264 846.626 409.013 286.621 122.393
internal_count=5485 3626 3570 1859 1284 575
is_linear=0
shrinkage=0.0414411


Tree=32
num_leaves=7
num_cat=0
split_feature=199 198 301 192 296 88
split_gain=60.5709 52.7745 53.4364 15.2621 12.3758 5.77705
threshold=0.83095238095238111 13.500000000000002 17.500000000000004 0.39500000000000007 0.42500000000000004 2.0050000000000003
decision_type=10 8 8 10 10 10
left_child=1 4 -3 -2 -1 -5
right_child=3 2 -4 5 -6 -7
leaf_value=0.0010738777343274419 -0.017925609559053115 0.015681908042626137 -0.0061527062864093719 0.02973801808089321 -0.037754438178345576 0
leaf_weight=12.205270498991011 11.617992565035818 258.68031430244446 749.68219824135303 139.82975885272026 87.273695856332779 8.4599160552024824
leaf_count=52 50 1122 3150 704 368 39
internal_value=0 -0.00339357 -0.000473595 0.0238897 -0.0322028 0.0276947
internal_weight=1267.75 1107.84 1008.36 159.908 99.479 148.29
internal_count=5485 4692 4272 793 420 743
is_linear=0
shrinkage=0.0414411


Tree=33
num_leaves=8
num_cat=0
split_feature=97 96 96 97 97 294 306
split_gain=109.368 38.0264 29.4194 28.721 26.8057 22.433 22.1598
threshold=-0.031710119945413999 -2.4999999999999996 12.500000000000002 0.14295732318172719 0.05767498267498266 1.9600000000000002 1.0000000180025095e-35
decision_type=10 10 8 10 10 10 2
left_child=2 3 5 -2 -3 -1 -4
right_child=1 4 6 -5 -6 -7 -8
leaf_value=0.019820008173099507 -0.0083722491125012878 0.0077652039247706976 0.020014536153689266 0.019958044804995384 0.0289294895257899 -0.023101008674823974 -0.013620751074499881
leaf_weight=20.225935339927673 231.65728707611561 228.88970178365707 62.444852396845818 83.369981840252876 208.29209890961647 359.28776870667934 71.792249321937561
leaf_count=83 960 967 258 414 1024 1483 296
internal_value=0 0.0101117 -0.0146932 -0.000625867 0.0180282 -0.0206069 0.00144206
internal_weight=1265.96 752.209 513.751 315.027 437.182 379.514 134.237
internal_count=5485 3365 2120 1374 1991 1566 554
is_linear=0
shrinkage=0.0414411


Tree=34
num_leaves=6
num_cat=0
split_feature=97 102 97 205 97
split_gain=101.033 37.215 38.641 29.4041 20.4378
threshold=-0.03711243675904239 8.5000000000000018 0.13839743589743594 inf -0.24856321839080456
decision_type=10 8 10 8 8
left_child=3 2 -2 4 -1
right_child=1 -3 -4 -5 -6
leaf_value=-0.047488343762041592 0.0054599122137983618 -0.074698315309326205 0.028562556004296975 0.041781578530833773 -0.013849512469814421
leaf_weight=36.029656112194061 601.50054138898849 8.7044729590415937 161.61506624519825 14.585728034377096 439.38095447421074
leaf_count=155 2588 37 834 62 1809
internal_value=0 0.00939323 0.0104555 -0.0146671 -0.0165641
internal_weight=1261.82 771.82 763.116 489.996 475.411
internal_count=5485 3459 3422 2026 1964
is_linear=0
shrinkage=0.0414411


Tree=35
num_leaves=8
num_cat=0
split_feature=97 198 300 96 204 89 192
split_gain=94.0334 37.7338 35.3109 28.8724 18.8377 13.7897 8.70257
threshold=0.05767498267498266 14.500000000000002 0.50500000000000012 -1.0000000180025095e-35 31.371663244353186 1.2950000000000002 0.36500000000000005
decision_type=10 8 10 10 10 10 10
left_child=1 5 -3 4 -2 -1 -5
right_child=3 2 -4 6 -6 -7 -8
leaf_value=-0.039867253345068798 -0.0058646698224134475 0.011668345853863057 -0.0092281284540063936 0 0.018401066171383734 0 0.032452804591838719
leaf_weight=77.408548027276993 102.29525561630726 178.44044381380081 595.66959524154663 13.227110370993612 110.81141862273216 20.378639191389084 159.88936579227448
leaf_count=322 469 748 2466 60 521 85 814
internal_value=0 -0.00749154 -0.00430999 0.0170712 0.00638535 -0.031875 0.0297722
internal_weight=1258.12 871.897 774.11 386.223 213.107 97.7872 173.116
internal_count=5485 3621 3214 1864 990 407 874
is_linear=0
shrinkage=0.0414411


Tree=36
num_leaves=6
num_cat=0
split_feature=97 102 97 205 97
split_gain=89.1051 33.8143 34.7148 26.8809 19.2514
threshold=-0.03711243675904239 8.5000000000000018 0.13839743589743594 inf -0.23717105263157887
decision_type=10 8 10 8 8
left_child=3 2 -2 4 -1
right_child=1 -3 -4 -5 -6
leaf_value=-0.043910231725876735 0.0051702504650401188 -0.07092973605948602 0.027276025601904161 0.040389782711754349 -0.012809944859734823
leaf_weight=40.086465090513229 599.51825402677059 8.7738834917545301 158.17647118866444 14.454039499163626 433.82575872540474
leaf_count=175 2588 37 834 62 1789
internal_value=0 0.00886088 0.00988861 -0.0137882 -0.0156063
internal_weight=1254.83 766.469 757.695 488.366 473.912
internal_count=5485 3459 3422 2026 1964
is_linear=0
shrinkage=0.0414411


Tree=37
num_leaves=8
num_cat=0
split_feature=0 301 198 198 222 302 91
split_gain=47.4018 34.2089 19.8735 18.3419 18.0147 15.3405 15.1966
threshold=-0.15879534565366343 14.500000000000002 14.500000000000002 9.5000000000000018 1.5941176470588239 0.77003205128205143 0.064999999999999961
decision_type=8 8 10 8 8 10 10
left_child=2 3 6 -2 -3 -4 -1
right_child=1 4 5 -5 -6 -7 -8
leaf_value=-0.019286106490871972 -0.042187028038232752 -0.01935192310110458 0.016857453057853002 0.017286267326102868 -0.0043371601513319232 -0.0013123420147049345 0.016981550304697408
leaf_weight=64.508134722709656 8.9854252487421018 264.90967978537083 356.84254539012909 116.07389996945858 320.43168318271637 92.750211015343666 26.643221631646156
leaf_count=287 39 1126 1634 513 1362 391 133
internal_value=0 -0.00699238 0.00929035 0.0123853 -0.0112664 0.0129347 -0.00782508
internal_weight=1251.14 710.401 540.744 125.059 585.341 449.593 91.1514
internal_count=5485 3040 2445 552 2488 2025 420
is_linear=0
shrinkage=0.0414411


Tree=38
num_leaves=8
num_cat=0
split_feature=89 22 91 96 302 302 96
split_gain=46.7152 26.5505 25.7765 22.1993 17.1091 15.2289 13.6328
threshold=-0.30999999999999978 3.9861111111111103 -0.059999999999999942 1.0000000180025095e-35 0.7386128364389235 0.68496240601503777 -13.499999999999998
decision_type=10 10 8 10 10 8 10
left_child=2 3 6 -2 -3 -4 -1
right_child=1 4 5 -5 -6 -7 -8
leaf_value=-0.069289295873193699 0.0022022537389531369 0.0040615950016735652 0.0061505830800358437 0.019329715829304258 -0.021555272389205023 -0.010345265093062975 -0.020040794739770048
leaf_weight=12.432594060897825 255.92570765316486 96.699597552418709 152.64286297559738 290.42046824097633 77.665584534406662 243.78010107576847 119.89586083590984
leaf_count=52 1143 433 668 1324 326 1029 510
internal_value=0 0.00690204 -0.00931642 0.0114502 -0.00689935 -0.00379581 -0.0252619
internal_weight=1249.46 720.711 528.751 546.346 174.365 396.423 132.328
internal_count=5485 3226 2259 2467 759 1697 562
is_linear=0
shrinkage=0.0414411


Tree=39
num_leaves=7
num_cat=0
split_feature=97 298 0 102 301 101
split_gain=79.5837 29.6788 25.7355 23.0333 18.8525 14.3776
threshold=0.036400441663599507 0.20500000000000004 -5.0266940451745379 7.5000000000000009 17.500000000000004 33.674195756331294
decision_type=10 10 8 8 10 10
left_child=1 5 -3 4 -2 -1
right_child=3 2 -4 -5 -6 -7
leaf_value=0.018318269513288511 0.029477437855482035 0.014852506047209429 -0.014240119302233198 -0.049299315952293511 0.0096840474175499697 -0.010635802639412202
leaf_weight=96.068960279226303 121.24236877262592 54.6156897097826 597.52161040902138 9.1748799830675107 330.15230120718479 38.800448730587959
leaf_count=403 622 225 2478 41 1555 161
internal_value=0 -0.00796946 -0.0116834 0.0137194 0.0151743 0.00940729
internal_weight=1247.58 787.007 652.137 460.57 451.395 134.869
internal_count=5485 3267 2703 2218 2177 564
is_linear=0
shrinkage=0.0414411


Tree=40
num_leaves=7
num_cat=0
split_feature=199 198 301 294 197 95
split_gain=44.3068 43.7112 45.4808 10.9673 8.02314 6.73913
threshold=0.83095238095238111 13.500000000000002 17.500000000000004 2.0350000000000006 0.27500000000000008 0.18999999999999997
decision_type=10 8 8 10 10 8
left_child=1 3 -3 -1 -2 -6
right_child=4 2 -4 -5 5 -7
leaf_value=0.0065462888659976954 -0.011048077474717191 0.014891219008866034 -0.0054487642059434733 -0.034032576617879992 0.01499462906083574 0.036289446196034254
leaf_weight=9.5398021191358549 9.2378998696804029 253.12147256731987 741.4933185428381 88.485165446996689 88.357789516448975 54.225400075316429
leaf_count=41 45 1122 3150 379 453 295
internal_value=0 -0.00287518 -0.000193561 -0.0292838 0.0210163 0.0236436
internal_weight=1244.46 1092.64 994.615 98.025 151.821 142.583
internal_count=5485 4692 4272 420 793 748
is_linear=0
shrinkage=0.0414411


Tree=41
num_leaves=7
num_cat=0
split_feature=97 200 97 295 97 239
split_gain=74.9071 32.5361 31.9842 22.5493 13.4517 12.9946
threshold=-0.04761904761904754 1.0000000180025095e-35 0.13839743589743594 0.39500000000000007 -0.24856321839080456 1.0954545454545457
decision_type=10 10 10 10 10 10
left_child=3 -2 -3 5 -5 -1
right_child=1 2 -4 4 -6 -7
leaf_value=0.018574089416917162 -0.077124738914069832 0.0042965989374349816 0.025618025249860212 -0.043831741259311996 -0.014904459195595167 -0.019874805828967401
leaf_weight=51.996128469705582 7.5182201117277137 637.41483306884766 153.56629171967506 34.019217297434807 338.49909581243992 19.731839209794998
leaf_count=216 31 2759 836 152 1410 81
internal_value=0 0.00763024 0.00853527 -0.0135988 -0.017757 0.00690391
internal_weight=1242.75 798.499 790.981 444.246 372.518 71.728
internal_count=5485 3626 3595 1859 1562 297
is_linear=0
shrinkage=0.0414411


Tree=42
num_leaves=7
num_cat=0
split_feature=97 102 97 294 198 295
split_gain=69.0866 30.9024 29.7503 21.4819 18.1771 6.00426
threshold=-0.04761904761904754 -3.4999999999999996 0.13839743589743594 1.9600000000000002 13.500000000000002 0.43500000000000005
decision_type=10 10 10 8 10 10
left_child=3 -2 -3 5 -5 -1
right_child=1 2 -4 4 -6 -7
leaf_value=0.04001685892202856 -0.070292077532189967 0.0041935373822584773 0.024877763289449958 -0.044487183769677495 -0.01250159381480798 0
leaf_weight=14.594915419816973 8.4969840794801694 635.91020184755325 151.62399169802666 35.958295464515686 381.6800534427166 10.860146969556807
leaf_count=61 35 2755 836 157 1597 44
internal_value=0 0.00733807 0.0082755 -0.0130778 -0.0154436 0.0226543
internal_weight=1239.12 796.031 787.534 443.093 417.638 25.4551
internal_count=5485 3626 3591 1859 1754 105
is_linear=0
shrinkage=0.0414411


Tree=43
num_leaves=8
num_cat=0
split_feature=300 204 88 17 40 101 195
split_gain=37.5031 37.1101 22.3336 17.3059 14.4886 13.7463 10.886
threshold=0.50500000000000012 31.620807665982209 -0.0099999999999999482 -0.16666666666666663 0.14083134892236074 32.721423682409316 0.62500000000000011
decision_type=10 10 8 10 10 10 8
left_child=2 3 6 -2 -3 -4 -1
right_child=1 4 5 -5 -6 -7 -8
leaf_value=0.028220763342909176 -0.0050080130406233219 0.0031386359123513558 0.0093996722235288668 -0.020517453831775057 0.032708803838510291 -0.017039738134346463 0
leaf_weight=132.02581408619881 349.19121046364307 328.43740297853947 108.09220603108406 208.7494573444128 32.425900295376778 48.667108118534088 28.04478731751442
leaf_count=623 1530 1457 486 903 146 208 132
internal_value=0 -0.00420315 0.0123309 -0.0109513 0.00601321 0.000691155 0.0232398
internal_weight=1235.63 918.804 316.83 557.941 360.863 156.759 160.071
internal_count=5485 4036 1449 2433 1603 694 755
is_linear=0
shrinkage=0.0414411


Tree=44
num_leaves=7
num_cat=0
split_feature=0 301 193 88 296 198
split_gain=37.0739 29.0835 23.6696 22.9131 17.5773 15.231
threshold=-0.15879534565366343 14.500000000000002 0.38500000000000006 0.55000000000000016 0.48500000000000004 14.500000000000002
decision_type=8 8 10 10 10 10
left_child=2 3 -1 -2 -4 -3
right_child=1 5 4 -5 -6 -7
leaf_value=-0.057111135059121493 0.024664442553647241 -0.032910095352375601 0.024464560347405108 -0.012517340531569958 0.005393785794413743 -0.0079318207054841425
leaf_weight=8.9935491830110532 82.516916006803513 48.511981055140495 110.46024997532368 40.31945264339447 411.73786890506744 531.78614045679569
leaf_count=38 376 210 533 176 1874 2278
internal_value=0 -0.00620434 0.00830101 0.0118219 0.00957806 -0.0101552
internal_weight=1234.33 703.134 531.192 122.836 522.198 580.298
internal_count=5485 3040 2445 552 2407 2488
is_linear=0
shrinkage=0.0414411


Tree=45
num_leaves=8
num_cat=0
split_feature=97 96 97 96 89 192 88
split_gain=61.9035 33.1809 27.5093 26.4576 25.7229 13.4044 10.978
threshold=0.05767498267498266 7.5000000000000009 -0.24856321839080456 -8.4999999999999982 0.8300000000000004 0.36500000000000005 -1.5349999999999995
decision_type=10 10 10 10 8 10 10
left_child=1 4 -3 6 -1 -5 -2
right_child=3 2 -4 5 -6 -7 -8
leaf_value=-0.017563369822850637 0.020320656282267622 -0.045020587307434558 0.0080023250521860882 -0.010237193402156354 0.0020859790077419156 0.022889383367264263 -0.014037291566337514
leaf_weight=406.09060145914555 19.755594789981842 17.533864468336105 289.00382441282272 19.367305979132652 149.85805250704288 264.95834844559431 66.182128489017487
leaf_count=1696 100 79 1215 88 631 1369 307
internal_value=0 -0.00605017 0.00471324 0.0142075 -0.0121258 0.0203571 -0.00522644
internal_weight=1232.75 862.486 306.538 370.263 555.949 284.326 85.9377
internal_count=5485 3621 1294 1864 2327 1457 407
is_linear=0
shrinkage=0.0414411


Tree=46
num_leaves=7
num_cat=0
split_feature=199 96 204 0 199 145
split_gain=34.8358 39.5159 38.0124 34.8092 7.92537 10.8266
threshold=0.83095238095238111 -1.0000000180025095e-35 32.439425051334709 5.0376454483230662 0.94281045751633996 0.83974358974358987
decision_type=10 10 10 10 10 8
left_child=1 2 -1 -3 5 -2
right_child=4 3 -4 -5 -6 -7
leaf_value=-0.021542765915097257 0.028378584560867733 0.0097587567091365172 0.0039556465553998894 -0.011466610238848388 0.046468580878679396 0.00263817621387675
leaf_weight=276.71929749846458 55.539395235478878 474.57919164001942 150.29801732301712 181.63534903526306 18.458198472857475 72.269652880728245
leaf_count=1170 294 2107 637 778 113 386
internal_value=0 -0.00252937 -0.0123845 0.00376426 0.0190165 0.0144374
internal_weight=1229.5 1083.23 427.017 656.215 146.267 127.809
internal_count=5485 4692 1807 2885 793 680
is_linear=0
shrinkage=0.0414411


Tree=47
num_leaves=8
num_cat=0
split_feature=90 150 293 190 18 12 193
split_gain=45.6095 22.8199 21.9428 20.1173 16.2047 14.3851 7.04408
threshold=-0.039999999999999945 1.7927358654959584 6.3850000000000007 3.8750000000000004 2.2301587301587307 3.0071428571428584 0.50500000000000012
decision_type=10 10 10 8 10 8 10
left_child=1 3 4 -1 -2 -3 -4
right_child=2 5 6 -5 -6 -7 -8
leaf_value=-0.0090449506871579065 0.0063049696516710085 -0.015381127435670817 0 -0.03676522095579849 -0.012037359774621881 0.0070587866368506296 0.047533153916907156
leaf_weight=115.66214510798454 690.73979094624519 78.957233563065529 10.126058913767336 85.786979362368584 91.503631144762039 126.6249743103981 27.99041348695755
leaf_count=497 3137 338 48 371 408 549 137
internal_value=0 -0.0112996 0.00566823 -0.0212391 0.00405911 -0.00117849 0.0366316
internal_weight=1227.39 407.031 820.36 201.449 782.243 205.582 38.1165
internal_count=5485 1755 3730 868 3545 887 185
is_linear=0
shrinkage=0.0414411


Tree=48
num_leaves=8
num_cat=0
split_feature=90 198 204 297 91 204 101
split_gain=43.1331 24.9051 20.1069 18.5904 13.7693 12.9869 8.18876
threshold=0.039999999999999959 12.500000000000002 31.585215605749489 1.0000000180025095e-35 0.054999999999999959 29.641341546885702 33.674195756331294
decision_type=10 8 10 10 10 10 10
left_child=1 4 -3 6 -1 -5 -2
right_child=3 2 -4 5 -6 -7 -8
leaf_value=-0.040347222127811715 0.03196143757551094 -0.0085530156786880578 0.0050271453563523437 -0.0050516903386153564 0 0.012904735365387818 0.0024952545242530708
leaf_weight=50.58709143102169 87.338375560939312 465.17238284647465 306.03306967020035 113.16402259469032 15.069267123937605 161.6258107572794 27.241485700011253
leaf_count=224 453 2003 1328 513 71 771 122
internal_value=0 -0.00526196 -0.00306245 0.0114339 -0.0299023 0.00522471 0.0256402
internal_weight=1226.23 836.862 771.205 389.37 65.6564 274.79 114.58
internal_count=5485 3626 3331 1859 295 1284 575
is_linear=0
shrinkage=0.0414411


Tree=49
num_leaves=8
num_cat=0
split_feature=90 150 199 302 96 90 96
split_gain=40.6572 24.1417 23.7244 21.9256 21.3931 17.435 9.89863
threshold=0.009999999999999851 1.6167311011182492 0.77888888888888907 0.78062500000000012 -1.4999999999999998 -0.10999999999999995 -3.4999999999999996
decision_type=10 10 10 10 10 8 10
left_child=1 5 4 -3 -2 -1 -4
right_child=2 3 6 -5 -6 -7 -8
leaf_value=-0.037520333581906748 -0.0095075278911314447 0.0051740535998306214 0.009228210783106882 -0.016035440431471589 0.0097785984094816616 -0.010505113688749679 0.033018694926450862
leaf_weight=59.494682297110558 148.80147764086723 289.83454912900925 67.242286771535873 117.11887109279633 282.74114921689034 180.65151831507683 78.490060314536095
leaf_count=255 626 1252 352 508 1261 783 448
internal_value=0 -0.0070886 0.00803906 -0.000737404 0.00294684 -0.0175248 0.0225799
internal_weight=1224.37 647.1 577.275 406.953 431.543 240.146 145.732
internal_count=5485 2798 2687 1760 1887 1038 800
is_linear=0
shrinkage=0.0414411


Tree=50
num_leaves=8
num_cat=0
split_feature=90 0 302 122 48 101 88
split_gain=37.9918 24.5677 21.8767 15.0384 14.8513 12.3932 10.0632
threshold=0.074999999999999969 7.8863791923340161 0.84495192307692324 3.4142857142857146 -0.11711731323064405 34.501026694045187 -0.45500000000000002
decision_type=10 10 10 8 8 10 10
left_child=1 2 -1 -3 6 -6 -2
right_child=4 3 -4 -5 5 -7 -8
leaf_value=0.00072238688477642031 0.013629414592004545 -0.013742832678156297 -0.021451990335554526 -0.056426627426051992 0.026246534314209268 0 -0.017306679402963768
leaf_weight=789.14106138050556 36.745935656130314 80.04148256778717 84.062292888760567 20.201536864042282 143.80340881645679 32.954526320099831 34.934188306331635
leaf_count=3466 180 342 372 87 732 145 161
internal_value=0 -0.00364873 -0.00132263 -0.0231283 0.0145071 0.0209771 -0.000354355
internal_weight=1221.88 973.446 873.203 100.243 248.438 176.758 71.6801
internal_count=5485 4267 3838 429 1218 877 341
is_linear=0
shrinkage=0.0414411


Tree=51
num_leaves=7
num_cat=0
split_feature=97 89 205 293 88 88
split_gain=53.7729 30.638 19.6857 19.594 18.0088 11.7942
threshold=-0.04761904761904754 -0.37500000000000017 inf 4.8950000000000005 -1.8399999999999996 -1.1799999999999995
decision_type=10 10 8 10 10 10
left_child=2 4 3 -1 -2 -3
right_child=1 5 -4 -5 -6 -7
leaf_value=-0.016761867405964422 0.014494927056490985 0.026762027569296631 0.036987700895072369 0.009091561687767518 -0.0092943260487447343 0.0095700441345974614
leaf_weight=370.18574139475822 69.612126886844635 93.770588926970959 13.039497330784796 54.10556660592556 233.44347506761551 385.70349111407995
leaf_count=1573 326 504 57 229 1001 1795
internal_value=0 0.00654099 -0.0116019 -0.0132803 -0.00357117 0.0130959
internal_weight=1219.86 782.53 437.331 424.291 303.056 479.474
internal_count=5485 3626 1859 1802 1327 2299
is_linear=0
shrinkage=0.0414411


Tree=52
num_leaves=8
num_cat=0
split_feature=89 301 17 302 222 7 89
split_gain=33.1899 20.8067 19.5574 16.7313 13.0678 17.005 7.80988
threshold=-0.94000000000000006 17.500000000000004 -0.18321678321678303 0.91987179487179505 1.607692307692308 18.175487012987016 -2.3749999999999996
decision_type=10 8 8 10 8 10 8
left_child=4 3 -3 -2 5 -1 -6
right_child=1 2 -4 -5 6 -7 -8
leaf_value=-0.035390753118610806 0.016225538567121559 0.010278937111197437 -0.0052181649322016153 -0.036345989205858575 -0.019372892802247854 -0.0043559669625110207 0.0001121178449309012
leaf_weight=70.892634123563766 254.82958552241325 212.42472662031651 409.214256092906 9.9691712707281095 43.266325280070305 64.326900094747543 151.79131197184324
leaf_count=303 1219 959 1824 45 191 283 661
internal_value=0 0.00422151 0 0.0139498 -0.011169 -0.021207 -0.00380836
internal_weight=1216.71 886.438 621.639 264.799 330.277 135.22 195.058
internal_count=5485 4047 2783 1264 1438 586 852
is_linear=0
shrinkage=0.0414411


Tree=53
num_leaves=6
num_cat=0
split_feature=97 303 97 102 301
split_gain=49.2834 25.1132 20.9099 16.9725 15.0826
threshold=0.036400441663599507 1.0000000180025095e-35 -0.13086080586080576 7.5000000000000009 17.500000000000004
decision_type=10 10 8 8 10
left_child=1 -1 -3 4 -2
right_child=3 2 -4 -5 -6
leaf_value=0.040647946544651224 0.025766988371842672 -0.020351634710572268 -0.0036224963325297965 -0.043376062069202151 0.0074694754828578038
leaf_weight=18.607689753174782 112.37064456194639 171.32076898217201 584.5909359306097 8.9817229062318784 319.54268222302198
leaf_count=83 622 760 2424 41 1555
internal_value=0 -0.00625922 -0.00751778 0.011097 0.0124116
internal_weight=1215.41 774.519 755.912 440.895 431.913
internal_count=5485 3267 3184 2218 2177
is_linear=0
shrinkage=0.0414411


Tree=54
num_leaves=8
num_cat=0
split_feature=90 199 198 198 298 192 194
split_gain=33.8808 23.9455 20.7247 18.0232 17.8193 15.1344 8.31112
threshold=-0.039999999999999945 0.77003205128205143 13.500000000000002 19.500000000000004 0.75500000000000012 0.38500000000000006 1.0000000180025095e-35
decision_type=10 10 8 8 8 10 10
left_child=3 2 -2 5 -5 -1 -3
right_child=1 6 -4 4 -6 -7 -8
leaf_value=-0.044139754935886046 -0.024605178216588218 0 0.0031011946614158447 -0.0073476593392999973 0.02807521626797552 -0.011087445455479806 0.021518875187140393
leaf_weight=42.084442406892776 50.405245885252953 41.411433398723602 555.5800889134407 258.59713964164257 26.326124057173729 76.245471686124802 161.46331266313791
leaf_count=183 218 219 2420 1114 113 345 873
internal_value=0 0.00492788 0.000667128 -0.00977651 -0.00379927 -0.023506 0.0172681
internal_weight=1212.11 808.86 605.985 403.253 284.923 118.33 202.875
internal_count=5485 3730 2638 1755 1227 528 1092
is_linear=0
shrinkage=0.0414411


Tree=55
num_leaves=8
num_cat=0
split_feature=90 198 301 48 101 88 107
split_gain=31.4943 25.9063 28.5069 13.6361 11.2695 9.08667 8.56031
threshold=0.074999999999999969 13.500000000000002 17.500000000000004 -0.11711731323064405 34.501026694045187 -0.45500000000000002 1.7596153846153848
decision_type=10 8 8 8 10 10 8
left_child=1 6 -3 5 -5 -2 -1
right_child=3 2 -4 4 -6 -7 -8
leaf_value=-0.00659690328448557 0.012393305626537466 0.01213535315356716 -0.0053090270545473649 0.024768228243067163 0 -0.01705678899168837 -0.034387085923198057
leaf_weight=40.738432019948959 36.143849715590477 212.21195223927498 656.32889157533646 140.3571268543601 32.727566361427307 34.76655812561512 56.923070251941681
leaf_count=191 180 966 2852 732 145 161 258
internal_value=0 -0.00332628 -0.000956537 0.0133363 0.0196381 -0.000940575 -0.0235979
internal_weight=1210.2 966.202 868.541 243.995 173.085 70.9104 97.6615
internal_count=5485 4267 3818 1218 877 341 449
is_linear=0
shrinkage=0.0414411


Tree=56
num_leaves=8
num_cat=0
split_feature=300 204 123 96 101 40 204
split_gain=28.9813 28.3831 22.7822 20.686 19.4224 15.0304 12.4782
threshold=0.50500000000000012 32.499657768651616 7.9687500000000009 -1.0000000180025095e-35 33.392197125256679 0.14083134892236074 30.314852840520196
decision_type=10 10 8 10 10 10 10
left_child=3 2 -2 6 -5 -3 -1
right_child=1 5 -4 4 -6 -7 -8
leaf_value=-0.018226098617164344 0 0.0038852192638707578 -0.015821509491562094 0.027947642538512018 0 0.04021336153194411 0.0091218893507437355
leaf_weight=50.754105359315872 273.20703220367432 261.06642978638411 345.4105668514967 135.11198099702597 58.334269553422928 22.094710238277912 62.821625255048275
leaf_count=228 1226 1177 1531 668 258 102 295
internal_value=0 -0.00371687 -0.00874774 0.0110241 0.0193162 0.00699714 -0.00240932
internal_weight=1208.8 901.779 618.618 307.022 193.446 283.161 113.576
internal_count=5485 4036 2757 1449 926 1279 523
is_linear=0
shrinkage=0.0414411


Tree=57
num_leaves=8
num_cat=0
split_feature=90 96 101 150 199 89 47
split_gain=30.1612 23.2756 24.04 19.0995 17.1735 14.4495 12.4861
threshold=-0.039999999999999945 -1.4999999999999998 33.479808350444905 1.7927358654959584 0.86515151515151534 -0.24500000000000008 -118.49999999999999
decision_type=10 10 10 10 10 8 8
left_child=3 4 -3 6 -2 -5 -1
right_child=1 2 -4 5 -6 -7 -8
leaf_value=0.013499417130092901 -0.0074836010109403904 0.017025161406683406 -0.0020400076438353253 -0.01064717597572626 0.022851884879449565 0.011480209956507762 -0.021646600607060348
leaf_weight=16.344764992594719 282.94102338701487 321.88389223814011 164.94898226857185 108.30691832304001 35.276243723928928 95.119314536452293 182.58618795871735
leaf_count=70 1233 1565 721 466 211 421 798
internal_value=0 0.00466313 0.0104045 -0.00923187 -0.0038742 0 -0.0183647
internal_weight=1207.41 805.05 486.833 402.357 318.217 203.426 198.931
internal_count=5485 3730 2286 1755 1444 887 868
is_linear=0
shrinkage=0.0414411


Tree=58
num_leaves=7
num_cat=0
split_feature=97 198 97 303 198 0
split_gain=44.4075 19.6048 22.3918 17.73 18.5783 14.7036
threshold=-0.031710119945413999 18.500000000000004 0.12824730094466938 1.0000000180025095e-35 25.500000000000004 5.6947296372347695
decision_type=10 10 10 10 8 10
left_child=3 2 -2 -1 -5 -3
right_child=1 5 -4 4 -6 -7
leaf_value=0.034854399463647136 -0.013765156131177467 0.014208089990136999 0.014171111055217036 -0.019624535369907253 -0.0028857132108224804 -0.005312563466452625
leaf_weight=14.195269688963888 137.9658672735095 425.1141504123807 74.833275511860847 227.47520850598812 253.79960215091705 72.061516165733337
leaf_count=64 609 2018 426 983 1073 312
internal_value=0 0.00667658 -0.00357264 -0.00948925 -0.0109603 0.0112211
internal_weight=1205.44 709.975 212.799 495.47 481.275 497.176
internal_count=5485 3365 1035 2120 2056 2330
is_linear=0
shrinkage=0.0414411


Tree=59
num_leaves=8
num_cat=0
split_feature=97 198 96 97 96 76 197
split_gain=41.8943 30.7527 25.1809 22.0918 19.2301 9.46429 9.45414
threshold=0.080460856313149462 18.500000000000004 -1.4999999999999998 -0.080788655788655697 -7.4999999999999991 -3.2999999999999994 0.26500000000000007
decision_type=10 8 8 10 10 10 10
left_child=1 2 -1 -3 5 -2 -6
right_child=4 3 -4 -5 6 -7 -8
leaf_value=-0.02934077883847324 -0.010721310746110945 -0.01021453055783924 0 0.005204996592262469 -0.019310614349964016 0.021487095175563645 0.023145607845530668
leaf_weight=130.75995555520058 62.289113752543926 242.57526254653931 83.304225906729698 466.17790806293488 7.4284177273511878 20.306301474571228 189.72369484603405
leaf_count=562 309 1048 370 1994 37 103 1062
internal_value=0 -0.0042302 -0.017996 0 0.0140768 -0.00185325 0.021148
internal_weight=1202.56 922.817 214.064 708.753 279.748 82.5954 197.152
internal_count=5485 3974 932 3042 1511 412 1099
is_linear=0
shrinkage=0.0414411


Tree=60
num_leaves=8
num_cat=0
split_feature=91 0 88 123 198 245 62
split_gain=27.22 31.3588 17.5105 15.2179 11.4589 8.49815 4.98444
threshold=-0.059999999999999942 -3.3867214236824075 -1.5549999999999999 8.9666666666666686 18.500000000000004 0.60724374495560951 0.092087093704074169
decision_type=10 10 10 8 8 10 10
left_child=3 5 -3 4 -1 -2 -5
right_child=1 2 -4 6 -6 -7 -8
leaf_value=-0.020301488394841433 0.022596263995354592 0.012785231030798584 -0.0035010610922193517 -0.024378004000774618 0.0070037443194635729 0 0
leaf_weight=37.885514959692955 153.50649593025446 138.46418324112892 617.34100493788719 119.9719285145402 84.467618055641651 35.762612983584404 11.881949193775652
leaf_count=171 766 658 2753 533 376 175 53
internal_value=0 0.00326281 -0.000413646 -0.012013 -0.000810827 0.0183578 -0.0218132
internal_weight=1199.28 945.074 755.805 254.207 122.353 189.269 131.854
internal_count=5485 4352 3411 1133 547 941 586
is_linear=0
shrinkage=0.0414411


Tree=61
num_leaves=8
num_cat=0
split_feature=97 96 89 97 96 91 88
split_gain=37.9539 29.1733 21.8411 21.1453 17.9901 11.3542 9.53909
threshold=0.080460856313149462 8.5000000000000018 1.1800000000000006 -0.24856321839080456 -7.4999999999999991 -0.10499999999999994 2.0350000000000006
decision_type=10 10 10 10 10 10 10
left_child=1 2 -1 -3 5 -2 -6
right_child=4 3 -4 -5 6 -7 -8
leaf_value=-0.012942657509620795 -0.047964327282164272 -0.039714462850820427 0.0060729446018623172 0.0095791138753444031 0.022484064466766717 0.0022912297351473944 -0.019043256249012278
leaf_weight=506.65611718595028 8.432895362377165 15.30869087576866 124.23506036400795 274.64414869248867 186.7181393429637 73.987499304115772 7.9504349678754798
leaf_count=2172 37 73 541 1188 1057 375 42
internal_value=0 -0.00402009 -0.00907385 0.00670576 0.0134731 -0.00190165 0.0203851
internal_weight=1197.93 920.844 630.891 289.953 277.089 82.4204 194.669
internal_count=5485 3974 2713 1261 1511 412 1099
is_linear=0
shrinkage=0.0414411


Tree=62
num_leaves=8
num_cat=0
split_feature=90 150 297 301 190 102 301
split_gain=26.5247 20.1631 18.9856 18.0703 16.0762 15.9293 11.5992
threshold=0.009999999999999851 1.6167311011182492 1.0000000180025095e-35 14.500000000000002 5.2950000000000008 2.5000000000000004 33.500000000000007
decision_type=10 10 10 8 8 10 10
left_child=1 4 6 -3 -1 -4 -2
right_child=2 3 5 -5 -6 -7 -8
leaf_value=-0.010980921915962467 0.022442865250482568 0.022351286006835558 -0.0037185244922743276 -0.0035585773506056663 -0.046319171649188452 0.013707506031066912 -0.019944940104635274
leaf_weight=208.56053368747234 142.38036908209324 53.340298712253571 275.8148201033473 346.1676209717989 27.141701251268387 131.71989063173532 10.056199997663496
leaf_count=918 729 243 1287 1517 120 624 47
internal_value=0 -0.00577054 0.00660109 0 -0.0153834 0.00172151 0.019132
internal_weight=1195.18 635.21 559.971 399.508 235.702 407.535 152.437
internal_count=5485 2798 2687 1760 1038 1911 776
is_linear=0
shrinkage=0.0414411


Tree=63
num_leaves=8
num_cat=0
split_feature=97 96 96 192 97 29 301
split_gain=36.5128 25.0841 20.4083 19.2488 16.8722 15.3512 9.85829
threshold=-0.049820739106453342 -13.499999999999998 6.5000000000000009 0.45500000000000007 -0.24856321839080456 -0.24621212121212119 41.500000000000007
decision_type=10 10 8 10 8 8 10
left_child=2 6 5 -3 -4 -1 -2
right_child=1 3 4 -5 -6 -7 -8
leaf_value=0.031486639580923362 -0.030050760485316547 9.299493410409114e-05 -0.038782565480508333 0.014288339801225257 0.0041207397725276668 -0.020444725453168527 0
leaf_weight=9.0686488151550275 41.774611592292786 308.17709193378687 17.297540560364723 380.48304431885481 173.92030175030231 221.96643245220184 41.133791387081146
leaf_count=40 190 1379 84 1906 732 973 181
internal_value=0 0.00538126 -0.00977692 0.00804974 0 -0.0180666 -0.0158379
internal_weight=1193.82 771.569 422.253 688.66 191.218 231.035 82.9084
internal_count=5485 3656 1829 3285 816 1013 371
is_linear=0
shrinkage=0.0414411


Tree=64
num_leaves=8
num_cat=0
split_feature=97 198 301 96 96 192 91
split_gain=33.7877 26.3331 27.5748 22.857 16.0866 10.4589 10.1312
threshold=0.080460856313149462 18.500000000000004 14.500000000000002 -1.4999999999999998 -7.4999999999999991 0.36500000000000005 -0.10499999999999994
decision_type=10 8 8 8 10 10 8
left_child=1 3 -3 -1 6 -6 -2
right_child=4 2 -4 -5 5 -7 -8
leaf_value=-0.027478450092343992 -0.045080479774447908 0.02275474342618225 -0.0029004744950176676 0 -0.012202697183165814 0.022260548337680763 0.0022666270498029307
leaf_weight=129.35910093784332 8.4827732443809492 81.320969820022583 623.8020333647728 82.825242504477501 13.479360982775686 177.94565395265818 73.868285328149796
leaf_count=562 37 369 2673 370 63 1036 375
internal_value=0 -0.00379339 0 -0.0165933 0.0127957 0.0194241 -0.00166051
internal_weight=1191.08 917.307 705.123 212.184 273.776 191.425 82.3511
internal_count=5485 3974 3042 932 1511 1099 412
is_linear=0
shrinkage=0.0414411


Tree=65
num_leaves=7
num_cat=0
split_feature=298 194 294 80 198 190
split_gain=25.1972 22.8573 17.9659 12.6374 11.7311 10.1196
threshold=0.20500000000000004 1.0000000180025095e-35 2.9450000000000007 -0.017734996178838395 23.500000000000004 5.8650000000000011
decision_type=10 10 10 8 10 10
left_child=3 4 -3 -1 -2 -5
right_child=1 2 -4 5 -6 -7
leaf_value=-0.026592988486200852 -0.02429027607393321 0.01121792352391354 -0.0032797841630364242 0.018178290949267373 -0.0019849867335718142 -0.018287419636590294
leaf_weight=11.656620264053343 113.062579870224 194.85377621650696 591.97423025220633 189.07709387689829 75.836749419569969 11.907013624906538
leaf_count=52 523 908 2691 916 339 56
internal_value=0 -0.00279892 0.000210915 0.0129442 -0.0157506 0.0156277
internal_weight=1188.37 975.727 786.828 212.641 188.899 200.984
internal_count=5485 4461 3599 1024 862 972
is_linear=0
shrinkage=0.0414411


Tree=66
num_leaves=8
num_cat=0
split_feature=97 192 293 0 17 120 245
split_gain=32.792 18.6083 17.1612 16.9123 15.3531 12.5328 8.90594
threshold=-0.04761904761904754 0.36500000000000005 4.8950000000000005 5.6947296372347695 2.6636904761904767 24.422222222222224 0.53083494236732787
decision_type=10 10 10 10 10 8 10
left_child=2 5 4 -3 -1 -2 -4
right_child=1 3 6 -5 -6 -7 -8
leaf_value=-0.0088898536662140211 0.0058272944819440361 0.0096897622845974699 0.025061330875059976 -0.0085866650289516677 -0.034885532362499708 -0.03265899319428147 -0.0074692097380490707
leaf_weight=324.88939762115479 19.480006590485573 608.08629809319973 34.72514745593071 96.936359152197838 48.076571524143219 35.592310726642609 19.759249806404114
leaf_count=1412 85 2963 151 423 211 155 85
internal_value=0 0.00517365 -0.00917338 0.00706566 -0.0124512 -0.0176231 0.0118256
internal_weight=1187.55 760.095 427.45 705.023 372.966 55.0723 54.4844
internal_count=5485 3626 1859 3386 1623 240 236
is_linear=0
shrinkage=0.0414411


Tree=67
num_leaves=8
num_cat=0
split_feature=91 301 88 199 127 92 47
split_gain=22.974 24.7876 20.159 18.0568 13.9896 11.3087 11.1887
threshold=-0.059999999999999942 13.500000000000002 0.29499999999999998 0.86515151515151534 15.469899665551841 0.65000000000000024 -142.49999999999997
decision_type=10 10 10 10 8 8 8
left_child=4 2 -2 -3 6 -6 -1
right_child=1 3 -4 -5 5 -7 -8
leaf_value=0.033692079826453149 0.033303484386112317 -0.001153955722584611 -0.00069657257103198365 0.024583808062561385 -0.026968392431911278 0 -0.0054595790603535147
leaf_weight=14.158455550670622 77.069420903921127 764.91430620104074 41.79097606241703 49.761257581412792 102.43027789890766 29.656788721680641 105.41322898119688
leaf_count=65 399 3440 199 314 459 135 474
internal_value=0 0.00299938 0.0206901 0.000322027 -0.0111088 -0.0204199 -0.000167258
internal_weight=1185.19 933.536 118.86 814.676 251.659 132.087 119.572
internal_count=5485 4352 598 3754 1133 594 539
is_linear=0
shrinkage=0.0414411


Tree=68
num_leaves=7
num_cat=0
split_feature=296 195 90 142 190 264
split_gain=22.8758 21.001 22.5196 10.7498 6.30182 5.74845
threshold=0.42500000000000004 0.64500000000000013 0.009999999999999851 0.66987209123131464 4.6550000000000011 1.0000000180025095e-35
decision_type=8 8 10 10 10 8
left_child=4 2 -2 -3 5 -1
right_child=1 3 -4 -5 -6 -7
leaf_value=0 -0.0052967016496227141 -0.022249298557269565 0.0072581865408356686 0.013405393827127271 0 0.034294664534065544
leaf_weight=12.539864271879194 528.09383406490088 109.74465109407902 456.58964611589909 13.863760404288767 13.930509604513643 48.879374831914902
leaf_count=62 2335 507 2198 67 65 251
internal_value=0 -0.00149841 0.000445302 -0.0176159 0.0220983 0.027844
internal_weight=1183.64 1108.29 984.683 123.608 75.3497 61.4192
internal_count=5485 5107 4533 574 378 313
is_linear=0
shrinkage=0.0414411


Tree=69
num_leaves=8
num_cat=0
split_feature=89 199 198 194 220 99 293
split_gain=24.5564 19.0166 17.5099 14.6083 14.5287 12.7449 12.1776
threshold=-0.94000000000000006 0.74133811230585434 13.500000000000002 0.25000000000000006 5.354166666666667 2.5000000000000004 4.8650000000000011
decision_type=10 10 10 10 8 10 8
left_child=4 2 -2 -3 6 -6 -1
right_child=1 3 -4 -5 5 -7 -8
leaf_value=-0.023124669500491725 -0.026410534849476985 0.0015434230352114517 0.0013562950783896183 0.021155269753523238 -0.0049579629088425383 0.029002948993960522 0
leaf_weight=142.97261281311512 41.923440501093864 129.36877498775721 535.40077164769173 153.73868854343891 102.75857058912516 23.076704904437065 53.284475386142731
leaf_count=632 188 666 2362 831 465 104 237
internal_value=0 0.0036602 -0.000524432 0.0124704 -0.00975409 0.00064786 -0.0168228
internal_weight=1182.52 860.432 577.324 283.107 322.092 125.835 196.257
internal_count=5485 4047 2550 1497 1438 569 869
is_linear=0
shrinkage=0.0414411


Tree=70
num_leaves=8
num_cat=0
split_feature=300 123 222 297 195 289 45
split_gain=22.6559 19.8466 21.9445 16.0595 12.462 11.3838 8.16621
threshold=0.50500000000000012 7.9687500000000009 1.3038461538461541 1.0000000180025095e-35 0.65500000000000014 1.5000000000000002 -0.04880952380952374
decision_type=10 8 8 8 8 10 8
left_child=3 5 -3 6 -5 -2 -1
right_child=1 2 -4 4 -6 -7 -8
leaf_value=-0.0013862617399627642 0.0060109216265129576 -0.021101657664057499 -0.0023383552089279651 0.0078337428410325035 -0.021105578874896801 -0.01775141005575959 0.031493419228826966
leaf_weight=10.517091691493986 351.75335521996021 168.12670996040106 326.35006628930569 190.23035637289286 28.552573166787624 37.160898193717003 68.304911233484745
leaf_count=53 1638 758 1473 902 132 167 362
internal_value=0 -0.00332205 -0.00887667 0.00989841 0.00369843 0.00353874 0.0261121
internal_weight=1181 883.391 494.477 297.605 218.783 388.914 78.822
internal_count=5485 4036 2231 1449 1034 1805 415
is_linear=0
shrinkage=0.0414411


Tree=71
num_leaves=7
num_cat=0
split_feature=97 205 96 96 204 149
split_gain=28.7633 20.5856 18.8065 18.5343 16.0911 11.8415
threshold=0.036400441663599507 inf 12.500000000000002 -1.0000000180025095e-35 31.371663244353186 379.50000000000006
decision_type=10 8 10 10 10 8
left_child=1 2 -1 4 -2 -5
right_child=3 -3 -4 5 -6 -7
leaf_value=-0.009573929622298841 -0.010034340002502685 0.038502610641493372 0.0060108328970159882 0.023784509951053051 0.011769094199946418 0
leaf_weight=574.62218776345253 116.33756826072931 17.910661801695824 166.48972806334496 148.33877288550138 115.32138010114431 40.93486475944519
leaf_count=2469 553 83 715 848 586 231
internal_value=0 -0.00481427 -0.00596706 0.0086924 0.000481229 0.0183281
internal_weight=1179.96 759.023 741.112 420.933 231.659 189.274
internal_count=5485 3267 3184 2218 1139 1079
is_linear=0
shrinkage=0.0414411


Tree=72
num_leaves=8
num_cat=0
split_feature=97 96 145 198 96 255 29
split_gain=27.4433 21.3281 17.6413 16.6707 15.8757 16.1523 13.7974
threshold=-0.04761904761904754 -13.499999999999998 0.41885964912280704 26.500000000000004 6.5000000000000009 6.8333333333333348 -0.24621212121212119
decision_type=10 10 10 10 8 8 8
left_child=4 3 -3 -2 6 -6 -1
right_child=1 2 -4 -5 5 -7 -8
leaf_value=0.031347180735326503 -0.024675730493976526 -0.0033716376128748223 0.01143075246925917 0.020176858711488756 -0.012625020765424601 0.011391021574625172 -0.018031360761622706
leaf_weight=9.0454601645469648 65.944561257958412 182.87728556245565 487.91844042390585 16.245389476418495 88.996514439582825 104.450574696064 221.90749306976795
leaf_count=40 298 879 2377 72 383 448 988
internal_value=0 0.00475818 0.00727837 -0.0148562 -0.00841911 0 -0.0157576
internal_weight=1177.39 752.986 670.796 82.19 424.4 193.447 230.953
internal_count=5485 3626 3256 370 1859 831 1028
is_linear=0
shrinkage=0.0414411


Tree=73
num_leaves=8
num_cat=0
split_feature=90 0 96 219 0 221 6
split_gain=20.4568 18.6028 18.8944 12.7075 11.2624 15.7984 8.00043
threshold=0.074999999999999969 7.8863791923340161 -1.0000000180025095e-35 5.5250000000000012 1.3648186173853516 4.3166666666666673 -1.9928571428571422
decision_type=10 10 10 8 10 8 8
left_child=1 2 -1 -3 6 -6 -2
right_child=4 3 -4 -5 5 -7 -8
leaf_value=-0.0077895889719523017 -0.0097524529360109771 -0.031437633396051823 0.0046885112226227408 0 -0.013616803422639316 0.020223963171562082 0.022111376832668318
leaf_weight=367.15535163134336 11.580203935503958 61.046532303094864 478.29441767930984 36.130259677767754 57.546676240861416 40.242006801068783 123.1299010142684
leaf_count=1648 62 268 2190 161 267 194 695
internal_value=0 -0.00270747 -0.000637682 -0.0199076 0.0110174 0 0.0187902
internal_weight=1175.13 942.627 845.45 97.1768 232.499 97.7887 134.71
internal_count=5485 4267 3838 429 1218 461 757
is_linear=0
shrinkage=0.0414411


Tree=74
num_leaves=8
num_cat=0
split_feature=89 123 302 221 222 7 192
split_gain=21.8021 17.7222 14.6374 14.0269 12.274 13.7694 11.5963
threshold=-0.94000000000000006 8.4365079365079385 0.83602150537634423 1.9428104575163403 1.607692307692308 18.175487012987016 0.36500000000000005
decision_type=10 8 10 8 8 10 10
left_child=4 3 -3 -2 5 -1 -6
right_child=1 2 -4 -5 6 -7 -8
leaf_value=-0.031981036181427273 -0.0024525769993054215 0.00038775298253317721 -0.024733044023576543 0.014977309093195867 -0.029353734286129068 -0.0034859537912943607 0.0014443321004801528
leaf_weight=68.848990753293037 100.63124242424965 429.81377629190683 43.347971200942993 279.58959881961346 23.571748778223991 62.421433761715889 165.37416932731867
leaf_count=303 471 2005 200 1371 106 283 746
internal_value=0 0.00346479 -0.00174817 0.0101581 -0.00921597 -0.0190287 -0.00198352
internal_weight=1173.6 853.383 473.162 380.221 320.216 131.27 188.946
internal_count=5485 4047 2205 1842 1438 586 852
is_linear=0
shrinkage=0.0414411


Tree=75
num_leaves=8
num_cat=0
split_feature=89 88 204 104 88 5 253
split_gain=21.4201 25.1997 18.5107 15.91 23.0866 9.55006 7.42812
threshold=1.1800000000000006 1.3550000000000006 31.585215605749489 6.6055555555555561 0.8899999999999999 -0.39999999999999991 1.2332586910588881
decision_type=10 10 10 8 10 10 8
left_child=1 2 -1 5 -5 -2 -3
right_child=3 6 -4 4 -6 -7 -8
leaf_value=-0.0054767391020322832 0.032360216617535312 0.0064690354695502014 0.0073969659733734141 0.014453894194582189 -0.021859317763735463 0.0083066117356437302 -0.026221586116081365
leaf_weight=499.64860041439533 64.389791302382946 9.4696221649646741 310.08916254341602 74.578893437981606 50.363132558763027 71.038885824382305 92.569057941436768
leaf_count=2282 326 42 1447 391 230 351 416
internal_value=0 -0.00299465 -0.000449944 0.0104823 0 0.0203222 -0.0224195
internal_weight=1172.15 911.776 809.738 260.371 124.942 135.429 102.039
internal_count=5485 4187 3729 1298 621 677 458
is_linear=0
shrinkage=0.0414411


Tree=76
num_leaves=8
num_cat=0
split_feature=89 198 0 206 96 105 138
split_gain=19.7751 21.5031 21.0723 14.3654 13.7401 10.9621 7.33982
threshold=1.1800000000000006 18.500000000000004 5.1088295687885035 0.84737654320987665 -1.4999999999999998 5.0294117647058831 51.510000000000012
decision_type=10 8 8 8 8 8 8
left_child=1 4 -3 5 -1 -2 -5
right_child=3 2 -4 6 -6 -7 -8
leaf_value=-0.020630319054547885 0.011413001128911686 0.0053444902321629437 -0.011298830617517783 0.036073532286487929 0 -0.010313431452461863 0.010291064545829714
leaf_weight=158.71721650660038 94.96233543753624 493.51407004892826 176.74104167521 44.120587877929211 82.273634061217308 66.597233153879642 53.729384556412697
leaf_count=743 468 2265 776 226 403 330 274
internal_value=0 -0.00286874 0.000838797 0.0100998 -0.0135054 0.00197187 0.0227183
internal_weight=1170.66 911.246 670.255 259.41 240.991 161.56 97.85
internal_count=5485 4187 3041 1298 1146 798 500
is_linear=0
shrinkage=0.0414411


Tree=77
num_leaves=8
num_cat=0
split_feature=88 195 302 18 299 299 296
split_gain=20.5364 20.5456 17.0917 12.026 9.08076 6.7875 6.75412
threshold=-1.865 0.80500000000000016 0.91987179487179505 -0.71184697655285878 0.20500000000000004 1.0000000180025095e-35 0.52500000000000013
decision_type=8 8 10 10 10 8 10
left_child=3 2 -2 6 -5 -3 -1
right_child=1 5 -4 4 -6 -7 -8
leaf_value=0.033442682827259117 0.00055553378148001317 0.00038036696907103407 -0.036264218841238038 0.033676335752327632 -0.0086014003754051691 -0.027503239241696925 0.0041697188444281223
leaf_weight=56.292541481554508 930.5399583876133 12.317904405295847 22.132214978337288 10.921115718781946 43.320122197270393 67.407027743756771 26.518394336104393
leaf_count=306 4297 59 111 55 218 308 131
internal_value=0 -0.00199219 -0.000217713 0.0150809 0 -0.0222122 0.0250157
internal_weight=1169.45 1032.4 952.672 137.052 54.2412 79.7249 82.8109
internal_count=5485 4775 4408 710 273 367 437
is_linear=0
shrinkage=0.0414411


Tree=78
num_leaves=8
num_cat=0
split_feature=97 0 298 96 91 91 88
split_gain=24.6957 21.6761 21.6929 13.129 10.2565 8.46258 8.38226
threshold=0.080460856313149462 -4.7118412046543456 0.19500000000000003 -7.4999999999999991 -0.059999999999999942 -0.10499999999999994 2.0350000000000006
decision_type=10 8 10 10 10 10 10
left_child=1 4 -3 5 -1 -2 -5
right_child=3 2 -4 6 -6 -7 -8
leaf_value=-0.0036485455621467536 -0.04163615438607296 0.010264374007556013 -0.0085529432604619943 0.019456510687926778 0.023097768873249377 0.0016633434431231491 -0.020067941529863537
leaf_weight=30.296015009284019 8.4272590875625593 120.96685256063938 680.20783049613237 175.4576178342104 72.537273868918419 72.728461809456348 7.7801410257816306
leaf_count=133 37 541 2978 1057 322 375 42
internal_value=0 -0.00324416 -0.00561391 0.0111545 0.0144559 -0.00186881 0.0173502
internal_weight=1168.4 904.008 801.175 264.393 102.833 81.1557 183.238
internal_count=5485 3974 3519 1511 455 412 1099
is_linear=0
shrinkage=0.0414411


Tree=79
num_leaves=7
num_cat=0
split_feature=97 301 204 96 294 96
split_gain=23.7741 23.9999 21.6178 19.9781 12.2728 11.0978
threshold=-0.13086080586080576 17.500000000000004 32.499657768651616 -1.4999999999999998 2.1850000000000005 13.500000000000002
decision_type=8 8 10 8 10 10
left_child=4 3 -3 -2 -1 -6
right_child=1 2 -4 -5 5 -7
leaf_value=0.017063834368652095 -0.013981672403098376 -0.0066309255240411414 0.008060896774193629 0.01824384517970187 -0.025498566853140156 0
leaf_weight=16.540931269526482 36.068922810256481 475.55585458129644 267.1496149674058 220.09197609126568 108.00142884254456 42.698980361223221
leaf_count=71 181 2146 1248 1129 518 192
internal_value=0 0.0024355 -0.00124076 0.0134002 -0.0144464 -0.0184254
internal_weight=1166.11 998.866 742.705 256.161 167.241 150.7
internal_count=5485 4704 3394 1310 781 710
is_linear=0
shrinkage=0.0414411


Tree=80
num_leaves=8
num_cat=0
split_feature=97 198 301 106 89 301 95
split_gain=22.3894 21.4735 20.6375 10.3214 10.0527 9.71467 8.06066
threshold=0.080460856313149462 14.500000000000002 17.500000000000004 3.9128787878787885 1.2950000000000002 22.500000000000004 0.315
decision_type=10 8 8 8 10 10 10
left_child=1 4 -3 5 -1 -2 -5
right_child=3 2 -4 6 -6 -7 -8
leaf_value=-0.02854807006333732 0.02926102160200127 0.010467980601851798 -0.0047345398967361856 -0.0045207250861510253 0.00032395986049129185 0.0070813000147303927 0.027925651364610192
leaf_weight=76.403156608343124 69.777774564921856 205.16200984269381 598.74110364168882 86.83624579012394 21.202161952853203 90.147938422858715 15.471737660467623
leaf_count=353 443 944 2582 487 95 482 99
internal_value=0 -0.00308718 -0.000757214 0.0106706 -0.0214736 0.0172492 0
internal_weight=1163.74 901.508 803.903 262.234 97.6053 159.926 102.308
internal_count=5485 3974 3526 1511 448 925 586
is_linear=0
shrinkage=0.0414411


Tree=81
num_leaves=7
num_cat=0
split_feature=97 200 96 283 97 241
split_gain=21.7422 19.6443 17.7949 11.8062 10.2769 2.78246
threshold=-0.13086080586080576 1.0000000180025095e-35 -2.4999999999999996 1.0000000180025095e-35 -0.24856321839080456 37.95000000000001
decision_type=8 10 10 8 10 10
left_child=3 -2 -3 5 -5 -1
right_child=1 2 -4 4 -6 -7
leaf_value=-0.0076923802126631392 -0.053613532688742992 -0.0039589060653388419 0.0074224912933650604 -0.030615856447061933 -0.0014578400865155386 -0.048496169709721239
leaf_weight=9.2602675408124941 10.513333350419996 374.94502273947001 610.11146412044764 27.866394467651844 108.61150857806206 20.285361170768738
leaf_count=42 47 1721 2936 145 497 97
internal_value=0 0.0023339 0.00301079 -0.0138649 -0.00798635 -0.0383624
internal_weight=1161.59 995.57 985.056 166.024 136.478 29.5456
internal_count=5485 4704 4657 781 642 139
is_linear=0
shrinkage=0.0414411


Tree=82
num_leaves=6
num_cat=0
split_feature=97 193 96 205 105
split_gain=20.8542 18.3689 15.3957 14.4384 15.867
threshold=-0.021007525083611946 0.38500000000000006 -13.499999999999998 inf 3.9198717948717952
decision_type=10 10 10 8 8
left_child=3 -2 -3 4 -1
right_child=1 2 -4 -5 -6
leaf_value=-0.001151132058891116 -0.0522647477701196 -0.011708581248985146 0.0084030649892634091 0.034322805182635086 -0.016401973481365607
leaf_weight=305.43006963282824 9.1854799464344961 71.058613687753677 556.7133694216609 14.058900341391562 203.40182142704725
leaf_count=1346 41 324 2814 66 894
internal_value=0 0.00503808 0.00600168 -0.00612969 -0.00740166
internal_weight=1159.85 636.957 627.772 522.891 508.832
internal_count=5485 3179 3138 2306 2240
is_linear=0
shrinkage=0.0414411


Tree=83
num_leaves=6
num_cat=0
split_feature=199 198 301 88 93
split_gain=18.5781 24.4903 25.9746 8.00707 4.40283
threshold=0.89087301587301593 13.500000000000002 14.500000000000002 -2.8149999999999999 0.28500000000000009
decision_type=10 8 8 10 10
left_child=1 3 -3 -1 -2
right_child=4 2 -4 -5 -6
leaf_value=0.013924594677085973 0.034826024155752186 0.017690724283715736 -0.0016006634644572064 -0.023467034418772872 0
leaf_weight=8.1929480731487256 31.683485522866249 138.31586718559265 875.30824598670006 98.656157366931438 5.6980620175600043
leaf_count=43 218 697 4014 473 40
internal_value=0 -0.00096106 0.000954504 -0.019866 0.0287357
internal_weight=1157.85 1120.47 1013.62 106.849 37.3815
internal_count=5485 5227 4711 516 258
is_linear=0
shrinkage=0.0414411


Tree=84
num_leaves=8
num_cat=0
split_feature=97 118 303 89 190 98 104
split_gain=19.6859 18.291 16.6117 11.6251 11.3686 10.2726 6.123
threshold=0.080460856313149462 2.1483516483516487 1.0000000180025095e-35 -0.9099999999999997 5.5100000000000007 -5.4999999999999991 6.4330357142857153
decision_type=10 8 10 8 10 10 8
left_child=1 3 -3 -1 5 -2 -6
right_child=4 2 -4 -5 6 -7 -8
leaf_value=-0.0054384138802156803 -0.016103371205424075 0.035865085050359409 -0.0077831308108393627 0.012891135717593415 0 0.015046899077720312 -0.045306285173038752
leaf_weight=85.027975216507912 17.375169068574905 14.75493799895048 630.53959776461124 167.18202426284552 7.0939582511782673 225.74946866929531 8.9099588841199857
leaf_count=372 98 73 2786 743 40 1326 47
internal_value=0 -0.00290485 -0.00666343 0.0064009 0.0100618 0.0124981 -0.0220475
internal_weight=1156.63 897.505 645.295 252.21 259.129 243.125 16.0039
internal_count=5485 3974 2859 1115 1511 1424 87
is_linear=0
shrinkage=0.0414411


Tree=85
num_leaves=7
num_cat=0
split_feature=298 93 0 18 80 96
split_gain=18.2665 21.2829 17.4931 13.6315 11.2414 10.3288
threshold=0.20500000000000004 0.33000000000000002 -4.7118412046543456 -1.1740384615384614 -0.017734996178838395 -2.4999999999999996
decision_type=10 8 10 8 8 10
left_child=4 2 -2 -3 -1 -6
right_child=1 3 -4 -5 5 -7
leaf_value=-0.026376796178698658 0.014210076898918561 0.009167462667865927 -0.0028152774718187851 -0.029986028482841456 0 0.020162463238715594
leaf_weight=11.446979664266108 120.14699117094278 15.869080297648905 743.02601507306099 71.253861136734486 57.931057594716549 135.02840530872345
leaf_count=52 610 74 3440 337 278 694
internal_value=0 -0.00241747 -0.000354625 -0.0219547 0.0112382 0.0138763
internal_weight=1154.7 950.296 863.173 87.1229 204.406 192.959
internal_count=5485 4461 4050 411 1024 972
is_linear=0
shrinkage=0.0414411


Tree=86
num_leaves=8
num_cat=0
split_feature=97 301 204 96 283 97 212
split_gain=19.1166 19.5137 19.3067 16.5909 10.9311 9.61523 4.70199
threshold=-0.13086080586080576 17.500000000000004 32.439425051334709 -1.4999999999999998 1.0000000180025095e-35 -0.27434210526315789 19.683333333333337
decision_type=8 8 10 8 8 10 10
left_child=4 3 -3 -2 6 -6 -1
right_child=1 2 -4 -5 5 -7 -8
leaf_value=-0.0002511736819037908 -0.012812628414705929 -0.0062820318404470674 0.0076107212340496208 0.01667049022849772 -0.035439860064398955 -0.0022774874346143813 -0.048104410654939755
leaf_weight=8.3971958011388796 35.59825848788023 469.898876093328 268.40764711052179 215.51479864120483 18.579485900700092 116.70486039668322 20.556408792734146
leaf_count=39 181 2130 1264 1129 101 541 100
internal_value=0 0.0021721 -0.00112522 0.0121787 -0.0130945 -0.00741209 -0.0369345
internal_weight=1153.66 989.42 738.307 251.113 164.238 135.284 28.9536
internal_count=5485 4704 3394 1310 781 642 139
is_linear=0
shrinkage=0.0414411


Tree=87
num_leaves=7
num_cat=0
split_feature=296 198 0 199 150 282
split_gain=18.5227 19.8301 17.3055 10.9742 7.62416 5.81924
threshold=0.42500000000000004 13.500000000000002 2.2710472279260796 0.90454545454545465 1.5365492019903786 31.500000000000004
decision_type=8 10 8 10 8 10
left_child=4 3 -3 -2 -1 -6
right_child=1 2 -4 -5 5 -7
leaf_value=0 -0.022863322711150751 0.0051091429557130023 -0.0061153240140348272 0.019486723876042455 0.033504621536999894 0
leaf_weight=16.787406742572784 97.642222255468369 573.12879383563995 399.24251593649387 9.7634319141507131 47.100166089832783 7.9104672148823729
leaf_count=84 476 2767 1798 66 255 39
internal_value=0 -0.00136797 0.000419915 -0.0182833 0.0203688 0.0279193
internal_weight=1151.58 1079.78 972.371 107.406 71.798 55.0106
internal_count=5485 5107 4565 542 378 294
is_linear=0
shrinkage=0.0414411


Tree=88
num_leaves=7
num_cat=0
split_feature=97 298 0 192 150 135
split_gain=17.6654 15.2466 14.2419 13.992 10.9081 9.31821
threshold=0.036400441663599507 0.20500000000000004 -5.0266940451745379 0.33500000000000008 1.5129446055385884 0.47988095238095246
decision_type=10 10 8 10 10 10
left_child=1 5 -3 -2 -5 -1
right_child=3 2 -4 4 -6 -7
leaf_value=0.0041628464504726839 -0.036994089587680544 0.013488032292086363 -0.0085742577106240475 -0.00039587235376598739 0.013505780702095958 0.040683035672936664
leaf_weight=112.0501963198185 11.439100749790667 52.589814156293869 564.88665232807398 138.96800112724304 255.66127732396126 14.732318729162214
leaf_count=498 51 225 2478 742 1425 66
internal_value=0 -0.00380648 -0.00656823 0.00693932 0.00841176 0.00902581
internal_weight=1150.33 744.259 617.476 406.068 394.629 126.783
internal_count=5485 3267 2703 2218 2167 564
is_linear=0
shrinkage=0.0414411


Tree=89
num_leaves=5
num_cat=0
split_feature=193 97 96 186
split_gain=17.2658 17.6609 15.7829 12.8193
threshold=0.36500000000000005 -0.13086080586080576 -13.499999999999998 0.70000000000000007
decision_type=8 8 8 8
left_child=-1 3 -3 -2
right_child=1 2 -4 -5
leaf_value=-0.049695504988245223 -0.029370343214319118 -0.013188653382675197 0.0044765326747758022 -0.0032907742439199652
leaf_weight=11.883023723959921 51.523385301232338 94.687687963247299 880.03914245590568 110.0963351726532
leaf_count=55 249 428 4228 525
internal_value=0 0.000510287 0.00268003 -0.0120902
internal_weight=1148.23 1136.35 974.727 161.62
internal_count=5485 5430 4656 774
is_linear=0
shrinkage=0.0414411


Tree=90
num_leaves=8
num_cat=0
split_feature=296 97 96 96 190 92 138
split_gain=17.0759 16.1645 13.037 10.1905 6.0129 6.06497 1.91564
threshold=0.42500000000000004 0.080460856313149462 8.5000000000000018 -8.4999999999999982 3.8050000000000002 -0.74999999999999978 50.414285714285718
decision_type=8 10 10 10 10 8 8
left_child=4 2 -2 -3 5 -1 -6
right_child=1 3 -4 -5 6 -7 -8
leaf_value=0 -0.007607116757988747 -0.0050738944403644999 0.0033896739786554568 0.01348355689845087 0.013050451573490461 0.038264072415068531 -0.006209421279361178
leaf_weight=8.3549034073948842 576.8195623010397 64.609591655433178 261.19503419846296 173.11852387338877 17.626185134053234 32.787637993693352 12.330009788274763
leaf_count=44 2554 327 1168 1058 87 183 64
internal_value=0 -0.00131791 -0.00408607 0.00811032 0.0196511 0.0302275 0.00250707
internal_weight=1146.84 1075.74 838.015 237.728 71.0987 41.1425 29.9562
internal_count=5485 5107 3722 1385 378 227 151
is_linear=0
shrinkage=0.0414411


Tree=91
num_leaves=8
num_cat=0
split_feature=88 150 90 297 295 24 119
split_gain=16.8714 15.8883 14.5202 12.8974 12.7119 11.2931 4.9986
threshold=-1.865 1.5476694915254241 -0.10999999999999995 0.55000000000000016 0.37500000000000006 -3.3257575757575752 2.1846590909090913
decision_type=8 10 8 10 8 8 10
left_child=3 2 -2 5 -3 -1 -5
right_child=1 4 -4 6 -6 -7 -8
leaf_value=-0.0077929525081504181 -0.030594577003889189 0.018961490796778446 -0.0053738903498043852 0 -2.6795740581730317e-05 0.027694491772490705 -0.034535079723401786
leaf_weight=14.899445325136183 48.486479707062244 66.249457709491253 285.88513822853565 25.036196507513523 611.69860395044088 84.388764284551144 8.4298762232065183
